digraph Tree {
node [shape=box, style="rounded", color="black", fontname=helvetica] ;
edge [fontname=helvetica] ;
0 [label="X[1356] <= 0.29\ngini = 0.44\nsamples = 11406\nvalue = [12225, 5874]"] ;
1 [label="X[11553] <= 0.14\ngini = 0.44\nsamples = 11389\nvalue = [12219, 5854]"] ;
0 -> 1 [labeldistance=2.5, labelangle=45, headlabel="True"] ;
2 [label="X[2192] <= 0.32\ngini = 0.44\nsamples = 11361\nvalue = [12175, 5854]"] ;
1 -> 2 ;
3 [label="X[13150] <= 0.36\ngini = 0.44\nsamples = 11333\nvalue = [12132, 5854]"] ;
2 -> 3 ;
4 [label="X[8277] <= 0.23\ngini = 0.44\nsamples = 11324\nvalue = [12128, 5842]"] ;
3 -> 4 ;
5 [label="X[1828] <= 0.08\ngini = 0.44\nsamples = 11300\nvalue = [12126, 5806]"] ;
4 -> 5 ;
6 [label="X[9859] <= 0.44\ngini = 0.44\nsamples = 11056\nvalue = [11751, 5805]"] ;
5 -> 6 ;
7 [label="X[8861] <= 0.24\ngini = 0.44\nsamples = 11048\nvalue = [11749, 5795]"] ;
6 -> 7 ;
8 [label="X[2333] <= 0.09\ngini = 0.44\nsamples = 10985\nvalue = [11671, 5783]"] ;
7 -> 8 ;
9 [label="X[124] <= 0.43\ngini = 0.44\nsamples = 10885\nvalue = [11596, 5712]"] ;
8 -> 9 ;
10 [label="X[1731] <= 0.19\ngini = 0.44\nsamples = 10883\nvalue = [11596, 5707]"] ;
9 -> 10 ;
11 [label="X[2576] <= 0.32\ngini = 0.44\nsamples = 10876\nvalue = [11596, 5689]"] ;
10 -> 11 ;
12 [label="X[8490] <= 0.1\ngini = 0.44\nsamples = 10856\nvalue = [11586, 5667]"] ;
11 -> 12 ;
13 [label="X[11678] <= 0.14\ngini = 0.44\nsamples = 10827\nvalue = [11568, 5642]"] ;
12 -> 13 ;
14 [label="X[10456] <= 0.19\ngini = 0.44\nsamples = 10810\nvalue = [11568, 5614]"] ;
13 -> 14 ;
15 [label="X[3280] <= 0.37\ngini = 0.44\nsamples = 10808\nvalue = [11568, 5608]"] ;
14 -> 15 ;
16 [label="X[14] <= 0.36\ngini = 0.44\nsamples = 10804\nvalue = [11568, 5601]"] ;
15 -> 16 ;
17 [label="X[3055] <= 0.18\ngini = 0.44\nsamples = 10800\nvalue = [11568, 5593]"] ;
16 -> 17 ;
18 [label="X[10810] <= 0.5\ngini = 0.44\nsamples = 10797\nvalue = [11568, 5584]"] ;
17 -> 18 ;
19 [label="X[15167] <= 0.44\ngini = 0.44\nsamples = 10793\nvalue = [11567, 5574]"] ;
18 -> 19 ;
20 [label="X[11042] <= 0.25\ngini = 0.44\nsamples = 10780\nvalue = [11562, 5561]"] ;
19 -> 20 ;
21 [label="X[806] <= 0.16\ngini = 0.44\nsamples = 10717\nvalue = [11473, 5547]"] ;
20 -> 21 ;
22 [label="X[11739] <= 0.15\ngini = 0.44\nsamples = 10713\nvalue = [11473, 5540]"] ;
21 -> 22 ;
23 [label="X[12426] <= 0.17\ngini = 0.44\nsamples = 10700\nvalue = [11473, 5524]"] ;
22 -> 23 ;
24 [label="X[12027] <= 0.3\ngini = 0.44\nsamples = 10696\nvalue = [11473, 5515]"] ;
23 -> 24 ;
25 [label="X[4333] <= 0.17\ngini = 0.44\nsamples = 10668\nvalue = [11457, 5490]"] ;
24 -> 25 ;
26 [label="X[254] <= 0.33\ngini = 0.44\nsamples = 10667\nvalue = [11457, 5484]"] ;
25 -> 26 ;
27 [label="X[3772] <= 0.43\ngini = 0.44\nsamples = 10647\nvalue = [11426, 5484]"] ;
26 -> 27 ;
28 [label="X[5202] <= 0.4\ngini = 0.44\nsamples = 10642\nvalue = [11425, 5476]"] ;
27 -> 28 ;
29 [label="X[11029] <= 0.14\ngini = 0.44\nsamples = 10587\nvalue = [11357, 5468]"] ;
28 -> 29 ;
30 [label="X[6458] <= 0.34\ngini = 0.44\nsamples = 9704\nvalue = [10337, 5119]"] ;
29 -> 30 ;
31 [label="X[4381] <= 0.39\ngini = 0.44\nsamples = 9687\nvalue = [10330, 5097]"] ;
30 -> 31 ;
32 [label="X[11881] <= 0.33\ngini = 0.44\nsamples = 9685\nvalue = [10330, 5091]"] ;
31 -> 32 ;
33 [label="X[12418] <= 0.08\ngini = 0.44\nsamples = 9673\nvalue = [10325, 5076]"] ;
32 -> 33 ;
34 [label="X[173] <= 0.13\ngini = 0.44\nsamples = 9382\nvalue = [9990, 4963]"] ;
33 -> 34 ;
35 [label="X[5371] <= 0.18\ngini = 0.44\nsamples = 9359\nvalue = [9973, 4939]"] ;
34 -> 35 ;
36 [label="X[13855] <= 0.46\ngini = 0.44\nsamples = 9351\nvalue = [9973, 4922]"] ;
35 -> 36 ;
37 [label="X[8902] <= 0.35\ngini = 0.44\nsamples = 9347\nvalue = [9973, 4915]"] ;
36 -> 37 ;
38 [label="X[8966] <= 0.22\ngini = 0.44\nsamples = 9343\nvalue = [9972, 4908]"] ;
37 -> 38 ;
39 [label="X[8595] <= 0.19\ngini = 0.44\nsamples = 9279\nvalue = [9866, 4906]"] ;
38 -> 39 ;
40 [label="X[14364] <= 0.52\ngini = 0.44\nsamples = 9275\nvalue = [9866, 4899]"] ;
39 -> 40 ;
41 [label="X[1252] <= 0.48\ngini = 0.44\nsamples = 9272\nvalue = [9866, 4893]"] ;
40 -> 41 ;
42 [label="X[13138] <= 0.23\ngini = 0.44\nsamples = 9269\nvalue = [9866, 4888]"] ;
41 -> 42 ;
43 [label="X[13699] <= 0.13\ngini = 0.44\nsamples = 9236\nvalue = [9819, 4885]"] ;
42 -> 43 ;
44 [label="X[5343] <= 0.19\ngini = 0.44\nsamples = 9233\nvalue = [9819, 4880]"] ;
43 -> 44 ;
45 [label="X[3697] <= 0.34\ngini = 0.44\nsamples = 9232\nvalue = [9819, 4875]"] ;
44 -> 45 ;
46 [label="X[6981] <= 0.24\ngini = 0.44\nsamples = 9224\nvalue = [9815, 4861]"] ;
45 -> 46 ;
47 [label="X[13591] <= 0.47\ngini = 0.44\nsamples = 9220\nvalue = [9815, 4855]"] ;
46 -> 47 ;
48 [label="X[12007] <= 0.68\ngini = 0.44\nsamples = 9217\nvalue = [9815, 4851]"] ;
47 -> 48 ;
49 [label="X[4460] <= 0.16\ngini = 0.44\nsamples = 9216\nvalue = [9815, 4846]"] ;
48 -> 49 ;
50 [label="X[5865] <= 0.33\ngini = 0.44\nsamples = 9207\nvalue = [9812, 4835]"] ;
49 -> 50 ;
51 [label="X[4306] <= 0.54\ngini = 0.44\nsamples = 9195\nvalue = [9807, 4825]"] ;
50 -> 51 ;
52 [label="X[14558] <= 0.15\ngini = 0.44\nsamples = 9193\nvalue = [9807, 4820]"] ;
51 -> 52 ;
53 [label="X[110] <= 0.52\ngini = 0.44\nsamples = 9186\nvalue = [9807, 4809]"] ;
52 -> 53 ;
54 [label="X[1147] <= 0.16\ngini = 0.44\nsamples = 9182\nvalue = [9807, 4802]"] ;
53 -> 54 ;
55 [label="X[14783] <= 0.32\ngini = 0.44\nsamples = 9180\nvalue = [9807, 4797]"] ;
54 -> 55 ;
56 [label="X[13639] <= 0.23\ngini = 0.44\nsamples = 9172\nvalue = [9805, 4784]"] ;
55 -> 56 ;
57 [label="X[13468] <= 0.27\ngini = 0.44\nsamples = 9149\nvalue = [9770, 4780]"] ;
56 -> 57 ;
58 [label="X[11611] <= 0.12\ngini = 0.44\nsamples = 9142\nvalue = [9767, 4770]"] ;
57 -> 58 ;
59 [label="X[14129] <= 0.27\ngini = 0.44\nsamples = 9111\nvalue = [9715, 4770]"] ;
58 -> 59 ;
60 [label="X[7552] <= 0.37\ngini = 0.44\nsamples = 9078\nvalue = [9694, 4738]"] ;
59 -> 60 ;
61 [label="X[14625] <= 0.44\ngini = 0.44\nsamples = 9076\nvalue = [9694, 4735]"] ;
60 -> 61 ;
62 [label="X[3616] <= 0.2\ngini = 0.44\nsamples = 9071\nvalue = [9693, 4726]"] ;
61 -> 62 ;
63 [label="X[4920] <= 0.15\ngini = 0.44\nsamples = 9069\nvalue = [9693, 4720]"] ;
62 -> 63 ;
64 [label="X[10248] <= 0.44\ngini = 0.44\nsamples = 9066\nvalue = [9693, 4713]"] ;
63 -> 64 ;
65 [label="X[8988] <= 0.23\ngini = 0.44\nsamples = 9064\nvalue = [9693, 4708]"] ;
64 -> 65 ;
66 [label="X[14101] <= 0.13\ngini = 0.44\nsamples = 9021\nvalue = [9638, 4706]"] ;
65 -> 66 ;
67 [label="X[7515] <= 0.37\ngini = 0.44\nsamples = 9000\nvalue = [9636, 4678]"] ;
66 -> 67 ;
68 [label="X[4144] <= 0.3\ngini = 0.44\nsamples = 8996\nvalue = [9635, 4672]"] ;
67 -> 68 ;
69 [label="X[3348] <= 0.21\ngini = 0.44\nsamples = 8989\nvalue = [9634, 4662]"] ;
68 -> 69 ;
70 [label="X[3960] <= 0.13\ngini = 0.44\nsamples = 8986\nvalue = [9634, 4657]"] ;
69 -> 70 ;
71 [label="X[3535] <= 0.14\ngini = 0.44\nsamples = 8966\nvalue = [9605, 4656]"] ;
70 -> 71 ;
72 [label="X[2005] <= 0.3\ngini = 0.44\nsamples = 8953\nvalue = [9587, 4656]"] ;
71 -> 72 ;
73 [label="X[14462] <= 0.13\ngini = 0.44\nsamples = 8948\nvalue = [9585, 4648]"] ;
72 -> 73 ;
74 [label="X[4917] <= 0.5\ngini = 0.44\nsamples = 8912\nvalue = [9560, 4614]"] ;
73 -> 74 ;
75 [label="X[10454] <= 0.22\ngini = 0.44\nsamples = 8908\nvalue = [9559, 4608]"] ;
74 -> 75 ;
76 [label="X[12965] <= 0.38\ngini = 0.44\nsamples = 8906\nvalue = [9559, 4603]"] ;
75 -> 76 ;
77 [label="X[2123] <= 0.24\ngini = 0.44\nsamples = 8896\nvalue = [9539, 4603]"] ;
76 -> 77 ;
78 [label="X[4513] <= 0.33\ngini = 0.44\nsamples = 8895\nvalue = [9539, 4599]"] ;
77 -> 78 ;
79 [label="X[8657] <= 0.14\ngini = 0.44\nsamples = 8888\nvalue = [9537, 4590]"] ;
78 -> 79 ;
80 [label="X[14779] <= 0.3\ngini = 0.44\nsamples = 8669\nvalue = [9278, 4506]"] ;
79 -> 80 ;
81 [label="X[1857] <= 0.22\ngini = 0.44\nsamples = 8662\nvalue = [9275, 4497]"] ;
80 -> 81 ;
82 [label="X[7623] <= 0.28\ngini = 0.44\nsamples = 8588\nvalue = [9153, 4494]"] ;
81 -> 82 ;
83 [label="X[8720] <= 0.2\ngini = 0.44\nsamples = 8541\nvalue = [9087, 4480]"] ;
82 -> 83 ;
84 [label="X[5250] <= 0.22\ngini = 0.44\nsamples = 8468\nvalue = [8988, 4472]"] ;
83 -> 84 ;
85 [label="X[8627] <= 0.5\ngini = 0.44\nsamples = 8467\nvalue = [8988, 4467]"] ;
84 -> 85 ;
86 [label="X[11474] <= 0.46\ngini = 0.44\nsamples = 8462\nvalue = [8988, 4461]"] ;
85 -> 86 ;
87 [label="X[6446] <= 0.12\ngini = 0.44\nsamples = 8457\nvalue = [8987, 4454]"] ;
86 -> 87 ;
88 [label="X[12865] <= 0.32\ngini = 0.44\nsamples = 8424\nvalue = [8935, 4452]"] ;
87 -> 88 ;
89 [label="X[15326] <= 0.21\ngini = 0.44\nsamples = 8421\nvalue = [8935, 4447]"] ;
88 -> 89 ;
90 [label="X[6263] <= 0.18\ngini = 0.44\nsamples = 8340\nvalue = [8873, 4382]"] ;
89 -> 90 ;
91 [label="X[11501] <= 0.34\ngini = 0.44\nsamples = 8330\nvalue = [8873, 4368]"] ;
90 -> 91 ;
92 [label="X[11787] <= 0.34\ngini = 0.44\nsamples = 8307\nvalue = [8836, 4363]"] ;
91 -> 92 ;
93 [label="X[5514] <= 0.67\ngini = 0.44\nsamples = 8275\nvalue = [8817, 4333]"] ;
92 -> 93 ;
94 [label="X[13311] <= 0.34\ngini = 0.44\nsamples = 8274\nvalue = [8817, 4329]"] ;
93 -> 94 ;
95 [label="X[1752] <= 0.11\ngini = 0.44\nsamples = 8258\nvalue = [8792, 4328]"] ;
94 -> 95 ;
96 [label="X[11801] <= 0.15\ngini = 0.44\nsamples = 8244\nvalue = [8768, 4327]"] ;
95 -> 96 ;
97 [label="X[703] <= 0.24\ngini = 0.44\nsamples = 8238\nvalue = [8766, 4316]"] ;
96 -> 97 ;
98 [label="X[14260] <= 0.22\ngini = 0.44\nsamples = 8197\nvalue = [8762, 4258]"] ;
97 -> 98 ;
99 [label="X[9011] <= 0.28\ngini = 0.44\nsamples = 8195\nvalue = [8762, 4254]"] ;
98 -> 99 ;
100 [label="X[4758] <= 0.15\ngini = 0.44\nsamples = 8073\nvalue = [8667, 4175]"] ;
99 -> 100 ;
101 [label="X[5557] <= 0.39\ngini = 0.44\nsamples = 8061\nvalue = [8658, 4161]"] ;
100 -> 101 ;
102 [label="X[12908] <= 0.43\ngini = 0.44\nsamples = 8052\nvalue = [8654, 4151]"] ;
101 -> 102 ;
103 [label="X[689] <= 0.38\ngini = 0.44\nsamples = 8022\nvalue = [8609, 4146]"] ;
102 -> 103 ;
104 [label="X[5370] <= 0.41\ngini = 0.44\nsamples = 8006\nvalue = [8597, 4126]"] ;
103 -> 104 ;
105 [label="X[8272] <= 0.36\ngini = 0.44\nsamples = 8003\nvalue = [8596, 4120]"] ;
104 -> 105 ;
106 [label="X[4792] <= 0.43\ngini = 0.44\nsamples = 8000\nvalue = [8596, 4115]"] ;
105 -> 106 ;
107 [label="X[9188] <= 0.14\ngini = 0.44\nsamples = 7994\nvalue = [8595, 4106]"] ;
106 -> 107 ;
108 [label="X[14182] <= 0.11\ngini = 0.44\nsamples = 7986\nvalue = [8595, 4093]"] ;
107 -> 108 ;
109 [label="X[6730] <= 0.19\ngini = 0.43\nsamples = 7944\nvalue = [8595, 4030]"] ;
108 -> 109 ;
110 [label="X[15341] <= 0.42\ngini = 0.43\nsamples = 7941\nvalue = [8595, 4025]"] ;
109 -> 110 ;
111 [label="X[278] <= 0.17\ngini = 0.43\nsamples = 7930\nvalue = [8591, 4014]"] ;
110 -> 111 ;
112 [label="X[14785] <= 0.54\ngini = 0.43\nsamples = 7924\nvalue = [8591, 4004]"] ;
111 -> 112 ;
113 [label="X[5938] <= 0.1\ngini = 0.43\nsamples = 7922\nvalue = [8591, 3999]"] ;
112 -> 113 ;
114 [label="X[9511] <= 0.27\ngini = 0.43\nsamples = 7838\nvalue = [8472, 3970]"] ;
113 -> 114 ;
115 [label="X[8293] <= 0.22\ngini = 0.44\nsamples = 7815\nvalue = [8437, 3969]"] ;
114 -> 115 ;
116 [label="X[9434] <= 0.38\ngini = 0.43\nsamples = 7791\nvalue = [8429, 3937]"] ;
115 -> 116 ;
117 [label="X[915] <= 0.21\ngini = 0.43\nsamples = 7782\nvalue = [8427, 3924]"] ;
116 -> 117 ;
118 [label="X[5450] <= 0.13\ngini = 0.43\nsamples = 7741\nvalue = [8422, 3873]"] ;
117 -> 118 ;
119 [label="X[6338] <= 0.2\ngini = 0.43\nsamples = 7727\nvalue = [8422, 3850]"] ;
118 -> 119 ;
120 [label="X[9977] <= 0.2\ngini = 0.43\nsamples = 7724\nvalue = [8422, 3845]"] ;
119 -> 120 ;
121 [label="X[5279] <= 0.29\ngini = 0.43\nsamples = 7722\nvalue = [8422, 3841]"] ;
120 -> 121 ;
122 [label="X[5096] <= 0.19\ngini = 0.43\nsamples = 7701\nvalue = [8388, 3838]"] ;
121 -> 122 ;
123 [label="X[7076] <= 0.31\ngini = 0.43\nsamples = 7359\nvalue = [7961, 3714]"] ;
122 -> 123 ;
124 [label="X[14134] <= 0.12\ngini = 0.43\nsamples = 7334\nvalue = [7953, 3685]"] ;
123 -> 124 ;
125 [label="X[13882] <= 0.44\ngini = 0.43\nsamples = 7315\nvalue = [7924, 3683]"] ;
124 -> 125 ;
126 [label="X[6418] <= 0.34\ngini = 0.43\nsamples = 7310\nvalue = [7922, 3673]"] ;
125 -> 126 ;
127 [label="X[9651] <= 0.15\ngini = 0.43\nsamples = 7306\nvalue = [7922, 3666]"] ;
126 -> 127 ;
128 [label="X[6203] <= 0.74\ngini = 0.43\nsamples = 7302\nvalue = [7922, 3658]"] ;
127 -> 128 ;
129 [label="X[5705] <= 0.29\ngini = 0.43\nsamples = 7301\nvalue = [7922, 3654]"] ;
128 -> 129 ;
130 [label="X[10168] <= 0.41\ngini = 0.43\nsamples = 7299\nvalue = [7922, 3647]"] ;
129 -> 130 ;
131 [label="X[7243] <= 0.21\ngini = 0.43\nsamples = 7291\nvalue = [7920, 3638]"] ;
130 -> 131 ;
132 [label="X[733] <= 0.37\ngini = 0.43\nsamples = 7290\nvalue = [7920, 3633]"] ;
131 -> 132 ;
133 [label="X[5096] <= 0.19\ngini = 0.43\nsamples = 7288\nvalue = [7920, 3628]"] ;
132 -> 133 ;
134 [label="X[15207] <= 0.18\ngini = 0.43\nsamples = 7284\nvalue = [7920, 3620]"] ;
133 -> 134 ;
135 [label="X[1623] <= 0.21\ngini = 0.43\nsamples = 7281\nvalue = [7920, 3615]"] ;
134 -> 135 ;
136 [label="X[2522] <= 0.26\ngini = 0.43\nsamples = 7279\nvalue = [7920, 3609]"] ;
135 -> 136 ;
137 [label="X[14625] <= 0.36\ngini = 0.43\nsamples = 7247\nvalue = [7895, 3583]"] ;
136 -> 137 ;
138 [label="X[12641] <= 0.31\ngini = 0.43\nsamples = 7245\nvalue = [7895, 3577]"] ;
137 -> 138 ;
139 [label="X[8522] <= 0.2\ngini = 0.43\nsamples = 7218\nvalue = [7886, 3550]"] ;
138 -> 139 ;
140 [label="X[374] <= 0.35\ngini = 0.43\nsamples = 7216\nvalue = [7886, 3545]"] ;
139 -> 140 ;
141 [label="X[693] <= 0.17\ngini = 0.43\nsamples = 7195\nvalue = [7870, 3526]"] ;
140 -> 141 ;
142 [label="X[10012] <= 0.54\ngini = 0.43\nsamples = 7194\nvalue = [7870, 3523]"] ;
141 -> 142 ;
143 [label="X[14157] <= 0.33\ngini = 0.43\nsamples = 7192\nvalue = [7870, 3518]"] ;
142 -> 143 ;
144 [label="X[3150] <= 0.17\ngini = 0.43\nsamples = 7180\nvalue = [7862, 3503]"] ;
143 -> 144 ;
145 [label="X[6266] <= 0.23\ngini = 0.43\nsamples = 7171\nvalue = [7861, 3487]"] ;
144 -> 145 ;
146 [label="X[5257] <= 0.15\ngini = 0.43\nsamples = 7170\nvalue = [7861, 3483]"] ;
145 -> 146 ;
147 [label="X[648] <= 0.39\ngini = 0.43\nsamples = 7150\nvalue = [7827, 3483]"] ;
146 -> 147 ;
148 [label="X[11660] <= 0.21\ngini = 0.43\nsamples = 7145\nvalue = [7826, 3477]"] ;
147 -> 148 ;
149 [label="X[15318] <= 0.33\ngini = 0.43\nsamples = 7143\nvalue = [7826, 3472]"] ;
148 -> 149 ;
150 [label="X[8778] <= 0.31\ngini = 0.43\nsamples = 7138\nvalue = [7825, 3466]"] ;
149 -> 150 ;
151 [label="X[2889] <= 0.27\ngini = 0.43\nsamples = 7130\nvalue = [7807, 3466]"] ;
150 -> 151 ;
152 [label="X[1933] <= 0.26\ngini = 0.43\nsamples = 7114\nvalue = [7797, 3449]"] ;
151 -> 152 ;
153 [label="X[9986] <= 0.31\ngini = 0.43\nsamples = 7113\nvalue = [7797, 3445]"] ;
152 -> 153 ;
154 [label="X[9421] <= 0.38\ngini = 0.43\nsamples = 7082\nvalue = [7754, 3440]"] ;
153 -> 154 ;
155 [label="X[13116] <= 0.44\ngini = 0.43\nsamples = 7077\nvalue = [7752, 3432]"] ;
154 -> 155 ;
156 [label="X[6859] <= 0.39\ngini = 0.42\nsamples = 7043\nvalue = [7725, 3400]"] ;
155 -> 156 ;
157 [label="X[11501] <= 0.32\ngini = 0.42\nsamples = 7039\nvalue = [7724, 3394]"] ;
156 -> 157 ;
158 [label="X[13761] <= 0.34\ngini = 0.42\nsamples = 7035\nvalue = [7724, 3387]"] ;
157 -> 158 ;
159 [label="X[5784] <= 0.33\ngini = 0.42\nsamples = 7026\nvalue = [7723, 3377]"] ;
158 -> 159 ;
160 [label="X[9192] <= 0.36\ngini = 0.42\nsamples = 7014\nvalue = [7718, 3363]"] ;
159 -> 160 ;
161 [label="X[2095] <= 0.23\ngini = 0.42\nsamples = 7011\nvalue = [7718, 3358]"] ;
160 -> 161 ;
162 [label="X[7656] <= 0.24\ngini = 0.42\nsamples = 7010\nvalue = [7718, 3355]"] ;
161 -> 162 ;
163 [label="X[2364] <= 0.21\ngini = 0.42\nsamples = 6984\nvalue = [7679, 3355]"] ;
162 -> 163 ;
164 [label="X[465] <= 0.21\ngini = 0.42\nsamples = 6885\nvalue = [7546, 3332]"] ;
163 -> 164 ;
165 [label="X[6451] <= 0.14\ngini = 0.42\nsamples = 6882\nvalue = [7546, 3328]"] ;
164 -> 165 ;
166 [label="X[11721] <= 0.32\ngini = 0.43\nsamples = 6867\nvalue = [7514, 3328]"] ;
165 -> 166 ;
167 [label="X[12251] <= 0.3\ngini = 0.43\nsamples = 6859\nvalue = [7508, 3316]"] ;
166 -> 167 ;
168 [label="X[12227] <= 0.56\ngini = 0.42\nsamples = 6837\nvalue = [7502, 3289]"] ;
167 -> 168 ;
169 [label="X[9841] <= 0.28\ngini = 0.42\nsamples = 6836\nvalue = [7502, 3286]"] ;
168 -> 169 ;
170 [label="X[5202] <= 0.18\ngini = 0.42\nsamples = 6802\nvalue = [7491, 3244]"] ;
169 -> 170 ;
171 [label="X[11418] <= 0.41\ngini = 0.42\nsamples = 6654\nvalue = [7291, 3190]"] ;
170 -> 171 ;
172 [label="X[3489] <= 0.15\ngini = 0.42\nsamples = 6650\nvalue = [7291, 3184]"] ;
171 -> 172 ;
173 [label="X[3221] <= 0.1\ngini = 0.42\nsamples = 6630\nvalue = [7252, 3184]"] ;
172 -> 173 ;
174 [label="X[9342] <= 0.14\ngini = 0.42\nsamples = 6594\nvalue = [7226, 3158]"] ;
173 -> 174 ;
175 [label="X[7334] <= 0.38\ngini = 0.42\nsamples = 6574\nvalue = [7200, 3158]"] ;
174 -> 175 ;
176 [label="X[4790] <= 0.47\ngini = 0.42\nsamples = 6572\nvalue = [7200, 3152]"] ;
175 -> 176 ;
177 [label="X[995] <= 0.37\ngini = 0.42\nsamples = 6571\nvalue = [7200, 3149]"] ;
176 -> 177 ;
178 [label="X[12579] <= 0.32\ngini = 0.42\nsamples = 6569\nvalue = [7200, 3144]"] ;
177 -> 178 ;
179 [label="X[8527] <= 0.2\ngini = 0.42\nsamples = 6565\nvalue = [7199, 3137]"] ;
178 -> 179 ;
180 [label="X[11356] <= 0.4\ngini = 0.42\nsamples = 6562\nvalue = [7199, 3133]"] ;
179 -> 180 ;
181 [label="X[5107] <= 0.21\ngini = 0.42\nsamples = 6557\nvalue = [7198, 3124]"] ;
180 -> 181 ;
182 [label="X[9772] <= 0.48\ngini = 0.42\nsamples = 6556\nvalue = [7198, 3120]"] ;
181 -> 182 ;
183 [label="X[3173] <= 0.59\ngini = 0.42\nsamples = 6554\nvalue = [7198, 3114]"] ;
182 -> 183 ;
184 [label="X[6552] <= 0.12\ngini = 0.42\nsamples = 6551\nvalue = [7198, 3109]"] ;
183 -> 184 ;
185 [label="X[13586] <= 0.11\ngini = 0.42\nsamples = 6538\nvalue = [7190, 3096]"] ;
184 -> 185 ;
186 [label="X[7200] <= 0.38\ngini = 0.42\nsamples = 6488\nvalue = [7189, 3021]"] ;
185 -> 186 ;
187 [label="X[9276] <= 0.13\ngini = 0.42\nsamples = 6484\nvalue = [7187, 3015]"] ;
186 -> 187 ;
188 [label="X[6250] <= 0.48\ngini = 0.42\nsamples = 5935\nvalue = [6533, 2827]"] ;
187 -> 188 ;
189 [label="X[13356] <= 0.3\ngini = 0.42\nsamples = 5931\nvalue = [6533, 2821]"] ;
188 -> 189 ;
190 [label="X[8431] <= 0.36\ngini = 0.42\nsamples = 5930\nvalue = [6533, 2818]"] ;
189 -> 190 ;
191 [label="X[6566] <= 0.41\ngini = 0.42\nsamples = 5920\nvalue = [6531, 2806]"] ;
190 -> 191 ;
192 [label="X[4158] <= 0.35\ngini = 0.42\nsamples = 5919\nvalue = [6531, 2803]"] ;
191 -> 192 ;
193 [label="X[3676] <= 0.37\ngini = 0.42\nsamples = 5915\nvalue = [6530, 2798]"] ;
192 -> 193 ;
194 [label="X[2511] <= 0.17\ngini = 0.42\nsamples = 5911\nvalue = [6529, 2793]"] ;
193 -> 194 ;
195 [label="X[3334] <= 0.4\ngini = 0.42\nsamples = 5910\nvalue = [6529, 2789]"] ;
194 -> 195 ;
196 [label="X[8780] <= 0.35\ngini = 0.42\nsamples = 5907\nvalue = [6529, 2785]"] ;
195 -> 196 ;
197 [label="X[4137] <= 0.2\ngini = 0.42\nsamples = 5902\nvalue = [6528, 2780]"] ;
196 -> 197 ;
198 [label="X[5087] <= 0.41\ngini = 0.42\nsamples = 5901\nvalue = [6528, 2776]"] ;
197 -> 198 ;
199 [label="X[2267] <= 0.32\ngini = 0.42\nsamples = 5897\nvalue = [6528, 2769]"] ;
198 -> 199 ;
200 [label="X[6470] <= 0.44\ngini = 0.42\nsamples = 5886\nvalue = [6522, 2754]"] ;
199 -> 200 ;
201 [label="X[2636] <= 0.32\ngini = 0.42\nsamples = 5883\nvalue = [6522, 2750]"] ;
200 -> 201 ;
202 [label="X[8127] <= 0.37\ngini = 0.42\nsamples = 5865\nvalue = [6512, 2735]"] ;
201 -> 202 ;
203 [label="X[3963] <= 0.36\ngini = 0.42\nsamples = 5859\nvalue = [6512, 2725]"] ;
202 -> 203 ;
204 [label="X[4523] <= 0.42\ngini = 0.42\nsamples = 5853\nvalue = [6510, 2717]"] ;
203 -> 204 ;
205 [label="X[14904] <= 0.19\ngini = 0.42\nsamples = 5848\nvalue = [6508, 2711]"] ;
204 -> 205 ;
206 [label="X[6170] <= 0.26\ngini = 0.42\nsamples = 5691\nvalue = [6312, 2664]"] ;
205 -> 206 ;
207 [label="X[15122] <= 0.39\ngini = 0.42\nsamples = 5690\nvalue = [6312, 2660]"] ;
206 -> 207 ;
208 [label="X[2044] <= 0.15\ngini = 0.42\nsamples = 5685\nvalue = [6311, 2652]"] ;
207 -> 208 ;
209 [label="X[643] <= 0.43\ngini = 0.42\nsamples = 5682\nvalue = [6311, 2647]"] ;
208 -> 209 ;
210 [label="X[14789] <= 0.38\ngini = 0.42\nsamples = 5679\nvalue = [6311, 2641]"] ;
209 -> 210 ;
211 [label="X[859] <= 0.44\ngini = 0.42\nsamples = 5672\nvalue = [6309, 2634]"] ;
210 -> 211 ;
212 [label="X[2433] <= 0.2\ngini = 0.42\nsamples = 5669\nvalue = [6309, 2630]"] ;
211 -> 212 ;
213 [label="X[3869] <= 0.25\ngini = 0.42\nsamples = 5667\nvalue = [6309, 2626]"] ;
212 -> 213 ;
214 [label="X[6223] <= 0.33\ngini = 0.41\nsamples = 5665\nvalue = [6309, 2620]"] ;
213 -> 214 ;
215 [label="X[14890] <= 0.47\ngini = 0.41\nsamples = 5664\nvalue = [6309, 2616]"] ;
214 -> 215 ;
216 [label="X[3947] <= 0.19\ngini = 0.41\nsamples = 5659\nvalue = [6308, 2609]"] ;
215 -> 216 ;
217 [label="X[3229] <= 0.55\ngini = 0.42\nsamples = 5554\nvalue = [6166, 2575]"] ;
216 -> 217 ;
218 [label="X[5581] <= 0.23\ngini = 0.42\nsamples = 5550\nvalue = [6166, 2571]"] ;
217 -> 218 ;
219 [label="X[374] <= 0.29\ngini = 0.41\nsamples = 5524\nvalue = [6152, 2552]"] ;
218 -> 219 ;
220 [label="X[14119] <= 0.35\ngini = 0.42\nsamples = 5506\nvalue = [6120, 2552]"] ;
219 -> 220 ;
221 [label="X[3747] <= 0.39\ngini = 0.41\nsamples = 5502\nvalue = [6118, 2544]"] ;
220 -> 221 ;
222 [label="X[3777] <= 0.17\ngini = 0.41\nsamples = 5495\nvalue = [6115, 2533]"] ;
221 -> 222 ;
223 [label="X[10923] <= 0.39\ngini = 0.41\nsamples = 5493\nvalue = [6115, 2529]"] ;
222 -> 223 ;
224 [label="X[4227] <= 0.2\ngini = 0.41\nsamples = 5479\nvalue = [6110, 2512]"] ;
223 -> 224 ;
225 [label="X[649] <= 0.2\ngini = 0.41\nsamples = 5478\nvalue = [6110, 2509]"] ;
224 -> 225 ;
226 [label="X[276] <= 0.09\ngini = 0.41\nsamples = 5477\nvalue = [6110, 2506]"] ;
225 -> 226 ;
227 [label="X[2153] <= 0.34\ngini = 0.41\nsamples = 5472\nvalue = [6110, 2499]"] ;
226 -> 227 ;
228 [label="X[3269] <= 0.31\ngini = 0.41\nsamples = 5460\nvalue = [6104, 2486]"] ;
227 -> 228 ;
229 [label="X[3891] <= 0.28\ngini = 0.41\nsamples = 5455\nvalue = [6103, 2480]"] ;
228 -> 229 ;
230 [label="X[13105] <= 0.26\ngini = 0.41\nsamples = 5454\nvalue = [6103, 2476]"] ;
229 -> 230 ;
231 [label="X[1977] <= 0.37\ngini = 0.41\nsamples = 5416\nvalue = [6072, 2449]"] ;
230 -> 231 ;
232 [label="X[14311] <= 0.3\ngini = 0.41\nsamples = 5408\nvalue = [6069, 2440]"] ;
231 -> 232 ;
233 [label="X[937] <= 0.18\ngini = 0.41\nsamples = 5407\nvalue = [6069, 2437]"] ;
232 -> 233 ;
234 [label="X[14088] <= 0.35\ngini = 0.41\nsamples = 5406\nvalue = [6069, 2433]"] ;
233 -> 234 ;
235 [label="X[6211] <= 0.55\ngini = 0.41\nsamples = 5402\nvalue = [6067, 2427]"] ;
234 -> 235 ;
236 [label="X[12807] <= 0.64\ngini = 0.41\nsamples = 5401\nvalue = [6067, 2425]"] ;
235 -> 236 ;
237 [label="X[8261] <= 0.44\ngini = 0.41\nsamples = 5399\nvalue = [6067, 2422]"] ;
236 -> 237 ;
238 [label="X[10168] <= 0.21\ngini = 0.41\nsamples = 5398\nvalue = [6067, 2419]"] ;
237 -> 238 ;
239 [label="X[11628] <= 0.36\ngini = 0.41\nsamples = 5323\nvalue = [5963, 2402]"] ;
238 -> 239 ;
240 [label="X[11917] <= 0.41\ngini = 0.41\nsamples = 5319\nvalue = [5963, 2397]"] ;
239 -> 240 ;
241 [label="X[13136] <= 0.49\ngini = 0.41\nsamples = 5314\nvalue = [5960, 2389]"] ;
240 -> 241 ;
242 [label="X[9011] <= 0.22\ngini = 0.41\nsamples = 5312\nvalue = [5960, 2385]"] ;
241 -> 242 ;
243 [label="X[1389] <= 0.3\ngini = 0.41\nsamples = 5235\nvalue = [5890, 2335]"] ;
242 -> 243 ;
244 [label="X[2409] <= 0.41\ngini = 0.4\nsamples = 5177\nvalue = [5838, 2293]"] ;
243 -> 244 ;
245 [label="X[4817] <= 0.2\ngini = 0.4\nsamples = 5166\nvalue = [5831, 2280]"] ;
244 -> 245 ;
246 [label="X[7633] <= 0.24\ngini = 0.4\nsamples = 5162\nvalue = [5830, 2274]"] ;
245 -> 246 ;
247 [label="X[14449] <= 0.22\ngini = 0.4\nsamples = 5128\nvalue = [5805, 2249]"] ;
246 -> 247 ;
248 [label="X[14250] <= 0.4\ngini = 0.4\nsamples = 5127\nvalue = [5805, 2246]"] ;
247 -> 248 ;
249 [label="X[12612] <= 0.37\ngini = 0.4\nsamples = 5126\nvalue = [5805, 2243]"] ;
248 -> 249 ;
250 [label="X[5761] <= 0.2\ngini = 0.4\nsamples = 5121\nvalue = [5804, 2235]"] ;
249 -> 250 ;
251 [label="X[6047] <= 0.5\ngini = 0.4\nsamples = 5118\nvalue = [5804, 2230]"] ;
250 -> 251 ;
252 [label="X[12618] <= 0.11\ngini = 0.4\nsamples = 5117\nvalue = [5804, 2227]"] ;
251 -> 252 ;
253 [label="X[5956] <= 0.2\ngini = 0.4\nsamples = 5093\nvalue = [5785, 2208]"] ;
252 -> 253 ;
254 [label="X[10487] <= 0.22\ngini = 0.4\nsamples = 5092\nvalue = [5785, 2205]"] ;
253 -> 254 ;
255 [label="X[14500] <= 0.24\ngini = 0.4\nsamples = 5090\nvalue = [5785, 2201]"] ;
254 -> 255 ;
256 [label="X[12650] <= 0.52\ngini = 0.4\nsamples = 5043\nvalue = [5749, 2168]"] ;
255 -> 256 ;
257 [label="X[2389] <= 0.22\ngini = 0.4\nsamples = 5041\nvalue = [5749, 2165]"] ;
256 -> 257 ;
258 [label="X[4841] <= 0.59\ngini = 0.4\nsamples = 5039\nvalue = [5749, 2159]"] ;
257 -> 258 ;
259 [label="X[8417] <= 0.15\ngini = 0.4\nsamples = 5022\nvalue = [5724, 2159]"] ;
258 -> 259 ;
260 [label="X[11318] <= 0.36\ngini = 0.4\nsamples = 5011\nvalue = [5719, 2149]"] ;
259 -> 260 ;
261 [label="X[3262] <= 0.19\ngini = 0.4\nsamples = 5008\nvalue = [5719, 2143]"] ;
260 -> 261 ;
262 [label="X[1485] <= 0.66\ngini = 0.4\nsamples = 5004\nvalue = [5719, 2136]"] ;
261 -> 262 ;
263 [label="X[11776] <= 0.11\ngini = 0.4\nsamples = 5002\nvalue = [5719, 2132]"] ;
262 -> 263 ;
264 [label="X[3693] <= 0.27\ngini = 0.4\nsamples = 4982\nvalue = [5688, 2132]"] ;
263 -> 264 ;
265 [label="X[8884] <= 0.43\ngini = 0.4\nsamples = 4948\nvalue = [5666, 2106]"] ;
264 -> 265 ;
266 [label="X[8691] <= 0.37\ngini = 0.39\nsamples = 4946\nvalue = [5666, 2102]"] ;
265 -> 266 ;
267 [label="X[261] <= 0.2\ngini = 0.39\nsamples = 4944\nvalue = [5666, 2098]"] ;
266 -> 267 ;
268 [label="X[2173] <= 0.41\ngini = 0.39\nsamples = 4943\nvalue = [5666, 2095]"] ;
267 -> 268 ;
269 [label="X[5320] <= 0.19\ngini = 0.39\nsamples = 4941\nvalue = [5666, 2091]"] ;
268 -> 269 ;
270 [label="X[13059] <= 0.18\ngini = 0.39\nsamples = 4940\nvalue = [5666, 2087]"] ;
269 -> 270 ;
271 [label="X[9286] <= 0.18\ngini = 0.39\nsamples = 4939\nvalue = [5666, 2084]"] ;
270 -> 271 ;
272 [label="X[15179] <= 0.3\ngini = 0.39\nsamples = 4934\nvalue = [5664, 2079]"] ;
271 -> 272 ;
273 [label="X[6495] <= 0.4\ngini = 0.39\nsamples = 4932\nvalue = [5664, 2075]"] ;
272 -> 273 ;
274 [label="X[6620] <= 0.25\ngini = 0.39\nsamples = 4930\nvalue = [5664, 2071]"] ;
273 -> 274 ;
275 [label="X[11151] <= 0.35\ngini = 0.39\nsamples = 4918\nvalue = [5643, 2071]"] ;
274 -> 275 ;
276 [label="X[470] <= 0.22\ngini = 0.39\nsamples = 4917\nvalue = [5643, 2068]"] ;
275 -> 276 ;
277 [label="X[3815] <= 0.32\ngini = 0.39\nsamples = 4916\nvalue = [5643, 2065]"] ;
276 -> 277 ;
278 [label="X[10963] <= 0.59\ngini = 0.39\nsamples = 4904\nvalue = [5638, 2055]"] ;
277 -> 278 ;
279 [label="X[6073] <= 0.1\ngini = 0.39\nsamples = 4902\nvalue = [5638, 2052]"] ;
278 -> 279 ;
280 [label="X[11782] <= 0.26\ngini = 0.39\nsamples = 4880\nvalue = [5606, 2050]"] ;
279 -> 280 ;
281 [label="X[10948] <= 0.27\ngini = 0.39\nsamples = 4867\nvalue = [5599, 2035]"] ;
280 -> 281 ;
282 [label="X[3763] <= 0.13\ngini = 0.39\nsamples = 4862\nvalue = [5598, 2030]"] ;
281 -> 282 ;
283 [label="X[139] <= 0.37\ngini = 0.39\nsamples = 4861\nvalue = [5598, 2027]"] ;
282 -> 283 ;
284 [label="X[14006] <= 0.43\ngini = 0.39\nsamples = 4855\nvalue = [5594, 2019]"] ;
283 -> 284 ;
285 [label="X[6012] <= 0.18\ngini = 0.39\nsamples = 4822\nvalue = [5568, 1994]"] ;
284 -> 285 ;
286 [label="X[3437] <= 0.18\ngini = 0.39\nsamples = 4820\nvalue = [5568, 1991]"] ;
285 -> 286 ;
287 [label="X[11104] <= 0.19\ngini = 0.39\nsamples = 4817\nvalue = [5568, 1986]"] ;
286 -> 287 ;
288 [label="X[11518] <= 0.16\ngini = 0.39\nsamples = 4816\nvalue = [5568, 1984]"] ;
287 -> 288 ;
289 [label="X[13545] <= 0.31\ngini = 0.39\nsamples = 4814\nvalue = [5568, 1980]"] ;
288 -> 289 ;
290 [label="X[13895] <= 0.28\ngini = 0.39\nsamples = 4805\nvalue = [5560, 1971]"] ;
289 -> 290 ;
291 [label="X[6704] <= 0.15\ngini = 0.39\nsamples = 4794\nvalue = [5555, 1961]"] ;
290 -> 291 ;
292 [label="X[684] <= 0.22\ngini = 0.39\nsamples = 4790\nvalue = [5554, 1956]"] ;
291 -> 292 ;
293 [label="X[3211] <= 0.2\ngini = 0.38\nsamples = 4789\nvalue = [5554, 1953]"] ;
292 -> 293 ;
294 [label="X[6597] <= 0.33\ngini = 0.38\nsamples = 4788\nvalue = [5554, 1950]"] ;
293 -> 294 ;
295 [label="X[12779] <= 0.71\ngini = 0.38\nsamples = 4787\nvalue = [5554, 1947]"] ;
294 -> 295 ;
296 [label="X[10101] <= 0.17\ngini = 0.38\nsamples = 4784\nvalue = [5554, 1943]"] ;
295 -> 296 ;
297 [label="X[13922] <= 0.55\ngini = 0.38\nsamples = 4783\nvalue = [5554, 1939]"] ;
296 -> 297 ;
298 [label="X[4625] <= 0.48\ngini = 0.38\nsamples = 4781\nvalue = [5554, 1936]"] ;
297 -> 298 ;
299 [label="X[6382] <= 0.13\ngini = 0.38\nsamples = 4779\nvalue = [5554, 1933]"] ;
298 -> 299 ;
300 [label="X[8753] <= 0.3\ngini = 0.38\nsamples = 4770\nvalue = [5550, 1925]"] ;
299 -> 300 ;
301 [label="X[15413] <= 0.21\ngini = 0.38\nsamples = 4706\nvalue = [5501, 1890]"] ;
300 -> 301 ;
302 [label="X[14702] <= 0.31\ngini = 0.38\nsamples = 4705\nvalue = [5501, 1887]"] ;
301 -> 302 ;
303 [label="X[11242] <= 0.2\ngini = 0.38\nsamples = 4680\nvalue = [5460, 1887]"] ;
302 -> 303 ;
304 [label="X[13917] <= 0.62\ngini = 0.38\nsamples = 4679\nvalue = [5460, 1884]"] ;
303 -> 304 ;
305 [label="X[9445] <= 0.28\ngini = 0.38\nsamples = 4678\nvalue = [5460, 1882]"] ;
304 -> 305 ;
306 [label="X[12846] <= 0.45\ngini = 0.38\nsamples = 4642\nvalue = [5412, 1877]"] ;
305 -> 306 ;
307 [label="X[13457] <= 0.42\ngini = 0.38\nsamples = 4640\nvalue = [5412, 1874]"] ;
306 -> 307 ;
308 [label="X[7944] <= 0.35\ngini = 0.38\nsamples = 4639\nvalue = [5412, 1871]"] ;
307 -> 308 ;
309 [label="X[3565] <= 0.44\ngini = 0.38\nsamples = 4638\nvalue = [5412, 1868]"] ;
308 -> 309 ;
310 [label="X[14672] <= 0.29\ngini = 0.38\nsamples = 4633\nvalue = [5411, 1863]"] ;
309 -> 310 ;
311 [label="X[5532] <= 0.43\ngini = 0.38\nsamples = 4632\nvalue = [5411, 1860]"] ;
310 -> 311 ;
312 [label="X[1746] <= 0.61\ngini = 0.38\nsamples = 4628\nvalue = [5411, 1855]"] ;
311 -> 312 ;
313 [label="X[11680] <= 0.25\ngini = 0.38\nsamples = 4627\nvalue = [5411, 1852]"] ;
312 -> 313 ;
314 [label="X[1637] <= 0.41\ngini = 0.38\nsamples = 4626\nvalue = [5411, 1849]"] ;
313 -> 314 ;
315 [label="X[14770] <= 0.31\ngini = 0.38\nsamples = 4625\nvalue = [5411, 1846]"] ;
314 -> 315 ;
316 [label="X[5143] <= 0.36\ngini = 0.38\nsamples = 4601\nvalue = [5367, 1845]"] ;
315 -> 316 ;
317 [label="X[10308] <= 0.33\ngini = 0.38\nsamples = 4599\nvalue = [5367, 1842]"] ;
316 -> 317 ;
318 [label="X[11633] <= 0.32\ngini = 0.38\nsamples = 4598\nvalue = [5367, 1839]"] ;
317 -> 318 ;
319 [label="X[1196] <= 0.28\ngini = 0.38\nsamples = 4587\nvalue = [5362, 1827]"] ;
318 -> 319 ;
320 [label="X[9686] <= 0.44\ngini = 0.38\nsamples = 4586\nvalue = [5362, 1824]"] ;
319 -> 320 ;
321 [label="X[12830] <= 0.32\ngini = 0.38\nsamples = 4584\nvalue = [5362, 1820]"] ;
320 -> 321 ;
322 [label="X[482] <= 0.19\ngini = 0.38\nsamples = 4583\nvalue = [5362, 1818]"] ;
321 -> 322 ;
323 [label="X[4658] <= 0.12\ngini = 0.38\nsamples = 4581\nvalue = [5362, 1815]"] ;
322 -> 323 ;
324 [label="X[61] <= 0.41\ngini = 0.38\nsamples = 4567\nvalue = [5352, 1802]"] ;
323 -> 324 ;
325 [label="X[15316] <= 0.4\ngini = 0.38\nsamples = 4565\nvalue = [5352, 1799]"] ;
324 -> 325 ;
326 [label="X[2871] <= 0.44\ngini = 0.38\nsamples = 4562\nvalue = [5352, 1796]"] ;
325 -> 326 ;
327 [label="X[202] <= 0.38\ngini = 0.38\nsamples = 4559\nvalue = [5352, 1792]"] ;
326 -> 327 ;
328 [label="X[14506] <= 0.47\ngini = 0.38\nsamples = 4557\nvalue = [5352, 1789]"] ;
327 -> 328 ;
329 [label="X[10192] <= 0.38\ngini = 0.38\nsamples = 4556\nvalue = [5352, 1786]"] ;
328 -> 329 ;
330 [label="X[10001] <= 0.52\ngini = 0.37\nsamples = 4551\nvalue = [5351, 1779]"] ;
329 -> 330 ;
331 [label="X[12145] <= 0.68\ngini = 0.37\nsamples = 4550\nvalue = [5351, 1775]"] ;
330 -> 331 ;
332 [label="X[1146] <= 0.25\ngini = 0.37\nsamples = 4548\nvalue = [5351, 1771]"] ;
331 -> 332 ;
333 [label="X[7007] <= 0.56\ngini = 0.37\nsamples = 4546\nvalue = [5351, 1768]"] ;
332 -> 333 ;
334 [label="X[9624] <= 0.16\ngini = 0.37\nsamples = 4545\nvalue = [5351, 1765]"] ;
333 -> 334 ;
335 [label="X[7169] <= 0.44\ngini = 0.37\nsamples = 4543\nvalue = [5351, 1762]"] ;
334 -> 335 ;
336 [label="X[12172] <= 0.17\ngini = 0.37\nsamples = 4534\nvalue = [5348, 1754]"] ;
335 -> 336 ;
337 [label="X[7640] <= 0.32\ngini = 0.37\nsamples = 4532\nvalue = [5348, 1750]"] ;
336 -> 337 ;
338 [label="X[5019] <= 0.17\ngini = 0.37\nsamples = 4521\nvalue = [5342, 1739]"] ;
337 -> 338 ;
339 [label="X[1296] <= 0.32\ngini = 0.37\nsamples = 4519\nvalue = [5342, 1735]"] ;
338 -> 339 ;
340 [label="X[5751] <= 0.5\ngini = 0.37\nsamples = 4517\nvalue = [5342, 1731]"] ;
339 -> 340 ;
341 [label="X[2903] <= 0.63\ngini = 0.37\nsamples = 4513\nvalue = [5341, 1726]"] ;
340 -> 341 ;
342 [label="X[6543] <= 0.24\ngini = 0.37\nsamples = 4511\nvalue = [5341, 1723]"] ;
341 -> 342 ;
343 [label="X[2227] <= 0.35\ngini = 0.37\nsamples = 4510\nvalue = [5341, 1721]"] ;
342 -> 343 ;
344 [label="X[14445] <= 0.17\ngini = 0.37\nsamples = 4509\nvalue = [5341, 1718]"] ;
343 -> 344 ;
345 [label="X[11993] <= 0.19\ngini = 0.37\nsamples = 4507\nvalue = [5341, 1714]"] ;
344 -> 345 ;
346 [label="X[2118] <= 0.5\ngini = 0.37\nsamples = 4505\nvalue = [5341, 1711]"] ;
345 -> 346 ;
347 [label="X[7144] <= 0.33\ngini = 0.37\nsamples = 4501\nvalue = [5341, 1703]"] ;
346 -> 347 ;
348 [label="X[5969] <= 0.38\ngini = 0.37\nsamples = 4495\nvalue = [5338, 1697]"] ;
347 -> 348 ;
349 [label="X[10444] <= 0.57\ngini = 0.37\nsamples = 4494\nvalue = [5338, 1695]"] ;
348 -> 349 ;
350 [label="X[76] <= 0.2\ngini = 0.37\nsamples = 4492\nvalue = [5338, 1691]"] ;
349 -> 350 ;
351 [label="X[13561] <= 0.2\ngini = 0.37\nsamples = 4490\nvalue = [5338, 1688]"] ;
350 -> 351 ;
352 [label="X[9276] <= 0.13\ngini = 0.36\nsamples = 4485\nvalue = [5338, 1680]"] ;
351 -> 352 ;
353 [label="X[7066] <= 0.18\ngini = 0.36\nsamples = 4482\nvalue = [5338, 1677]"] ;
352 -> 353 ;
354 [label="X[11280] <= 0.44\ngini = 0.36\nsamples = 4480\nvalue = [5338, 1674]"] ;
353 -> 354 ;
355 [label="X[14479] <= 0.09\ngini = 0.36\nsamples = 4479\nvalue = [5338, 1671]"] ;
354 -> 355 ;
356 [label="X[2025] <= 0.58\ngini = 0.36\nsamples = 4444\nvalue = [5290, 1667]"] ;
355 -> 356 ;
357 [label="X[3965] <= 0.15\ngini = 0.36\nsamples = 4443\nvalue = [5290, 1665]"] ;
356 -> 357 ;
358 [label="X[5116] <= 0.17\ngini = 0.36\nsamples = 4442\nvalue = [5290, 1663]"] ;
357 -> 358 ;
359 [label="X[7273] <= 0.32\ngini = 0.36\nsamples = 4440\nvalue = [5290, 1659]"] ;
358 -> 359 ;
360 [label="X[4948] <= 0.38\ngini = 0.36\nsamples = 4426\nvalue = [5280, 1646]"] ;
359 -> 360 ;
361 [label="X[5172] <= 0.37\ngini = 0.36\nsamples = 4424\nvalue = [5280, 1642]"] ;
360 -> 361 ;
362 [label="X[14587] <= 0.19\ngini = 0.36\nsamples = 4422\nvalue = [5280, 1639]"] ;
361 -> 362 ;
363 [label="X[13381] <= 0.34\ngini = 0.36\nsamples = 4421\nvalue = [5280, 1635]"] ;
362 -> 363 ;
364 [label="X[13838] <= 0.38\ngini = 0.36\nsamples = 4420\nvalue = [5280, 1631]"] ;
363 -> 364 ;
365 [label="X[4229] <= 0.19\ngini = 0.36\nsamples = 4414\nvalue = [5278, 1626]"] ;
364 -> 365 ;
366 [label="X[3595] <= 0.2\ngini = 0.36\nsamples = 4412\nvalue = [5278, 1622]"] ;
365 -> 366 ;
367 [label="X[5866] <= 0.44\ngini = 0.36\nsamples = 4410\nvalue = [5278, 1619]"] ;
366 -> 367 ;
368 [label="X[8837] <= 0.18\ngini = 0.36\nsamples = 4409\nvalue = [5278, 1616]"] ;
367 -> 368 ;
369 [label="X[9604] <= 0.33\ngini = 0.36\nsamples = 4407\nvalue = [5278, 1613]"] ;
368 -> 369 ;
370 [label="X[5527] <= 0.11\ngini = 0.36\nsamples = 4406\nvalue = [5278, 1610]"] ;
369 -> 370 ;
371 [label="X[3379] <= 0.35\ngini = 0.36\nsamples = 4405\nvalue = [5278, 1608]"] ;
370 -> 371 ;
372 [label="X[2821] <= 0.5\ngini = 0.36\nsamples = 4399\nvalue = [5274, 1602]"] ;
371 -> 372 ;
373 [label="X[2895] <= 0.33\ngini = 0.36\nsamples = 4397\nvalue = [5274, 1599]"] ;
372 -> 373 ;
374 [label="X[3049] <= 0.16\ngini = 0.36\nsamples = 4395\nvalue = [5274, 1596]"] ;
373 -> 374 ;
375 [label="X[8388] <= 0.7\ngini = 0.36\nsamples = 4390\nvalue = [5272, 1591]"] ;
374 -> 375 ;
376 [label="X[6393] <= 0.32\ngini = 0.36\nsamples = 4389\nvalue = [5272, 1588]"] ;
375 -> 376 ;
377 [label="X[7172] <= 0.21\ngini = 0.36\nsamples = 4382\nvalue = [5267, 1580]"] ;
376 -> 377 ;
378 [label="X[988] <= 0.47\ngini = 0.35\nsamples = 4381\nvalue = [5267, 1577]"] ;
377 -> 378 ;
379 [label="X[4638] <= 0.19\ngini = 0.35\nsamples = 4380\nvalue = [5267, 1575]"] ;
378 -> 379 ;
380 [label="X[14205] <= 0.64\ngini = 0.35\nsamples = 4378\nvalue = [5267, 1572]"] ;
379 -> 380 ;
381 [label="X[717] <= 0.35\ngini = 0.35\nsamples = 4372\nvalue = [5264, 1563]"] ;
380 -> 381 ;
382 [label="X[2271] <= 0.46\ngini = 0.35\nsamples = 4369\nvalue = [5264, 1560]"] ;
381 -> 382 ;
383 [label="X[12049] <= 0.73\ngini = 0.35\nsamples = 4367\nvalue = [5264, 1556]"] ;
382 -> 383 ;
384 [label="X[531] <= 0.18\ngini = 0.35\nsamples = 4366\nvalue = [5264, 1554]"] ;
383 -> 384 ;
385 [label="X[4307] <= 0.25\ngini = 0.35\nsamples = 4362\nvalue = [5264, 1545]"] ;
384 -> 385 ;
386 [label="X[10684] <= 0.34\ngini = 0.35\nsamples = 4361\nvalue = [5264, 1542]"] ;
385 -> 386 ;
387 [label="X[10031] <= 0.32\ngini = 0.35\nsamples = 4360\nvalue = [5264, 1540]"] ;
386 -> 387 ;
388 [label="X[2966] <= 0.22\ngini = 0.35\nsamples = 4359\nvalue = [5264, 1538]"] ;
387 -> 388 ;
389 [label="X[12908] <= 0.35\ngini = 0.35\nsamples = 4358\nvalue = [5264, 1536]"] ;
388 -> 389 ;
390 [label="X[2894] <= 0.17\ngini = 0.35\nsamples = 4341\nvalue = [5250, 1521]"] ;
389 -> 390 ;
391 [label="X[8841] <= 0.26\ngini = 0.35\nsamples = 4340\nvalue = [5250, 1519]"] ;
390 -> 391 ;
392 [label="X[8636] <= 0.3\ngini = 0.35\nsamples = 4313\nvalue = [5207, 1519]"] ;
391 -> 392 ;
393 [label="X[6406] <= 0.19\ngini = 0.35\nsamples = 4311\nvalue = [5207, 1516]"] ;
392 -> 393 ;
394 [label="X[11082] <= 0.53\ngini = 0.35\nsamples = 4310\nvalue = [5207, 1514]"] ;
393 -> 394 ;
395 [label="X[3942] <= 0.35\ngini = 0.35\nsamples = 4308\nvalue = [5207, 1511]"] ;
394 -> 395 ;
396 [label="X[11159] <= 0.15\ngini = 0.35\nsamples = 4306\nvalue = [5207, 1507]"] ;
395 -> 396 ;
397 [label="X[14936] <= 0.35\ngini = 0.35\nsamples = 4302\nvalue = [5205, 1502]"] ;
396 -> 397 ;
398 [label="X[2769] <= 0.46\ngini = 0.35\nsamples = 4301\nvalue = [5205, 1500]"] ;
397 -> 398 ;
399 [label="X[7351] <= 0.12\ngini = 0.35\nsamples = 4299\nvalue = [5205, 1497]"] ;
398 -> 399 ;
400 [label="X[14025] <= 0.35\ngini = 0.35\nsamples = 3600\nvalue = [4329, 1291]"] ;
399 -> 400 ;
401 [label="X[8841] <= 0.16\ngini = 0.35\nsamples = 3598\nvalue = [4329, 1289]"] ;
400 -> 401 ;
402 [label="X[7425] <= 0.25\ngini = 0.35\nsamples = 3510\nvalue = [4256, 1239]"] ;
401 -> 402 ;
403 [label="X[12506] <= 0.27\ngini = 0.35\nsamples = 3509\nvalue = [4256, 1236]"] ;
402 -> 403 ;
404 [label="X[7947] <= 0.3\ngini = 0.35\nsamples = 3508\nvalue = [4256, 1233]"] ;
403 -> 404 ;
405 [label="X[4888] <= 0.21\ngini = 0.35\nsamples = 3498\nvalue = [4247, 1224]"] ;
404 -> 405 ;
406 [label="X[4971] <= 0.4\ngini = 0.35\nsamples = 3497\nvalue = [4247, 1222]"] ;
405 -> 406 ;
407 [label="X[7482] <= 0.29\ngini = 0.34\nsamples = 3481\nvalue = [4237, 1206]"] ;
406 -> 407 ;
408 [label="X[5049] <= 0.31\ngini = 0.34\nsamples = 3480\nvalue = [4237, 1204]"] ;
407 -> 408 ;
409 [label="X[14305] <= 0.18\ngini = 0.34\nsamples = 3479\nvalue = [4237, 1202]"] ;
408 -> 409 ;
410 [label="X[15234] <= 0.35\ngini = 0.34\nsamples = 3478\nvalue = [4237, 1200]"] ;
409 -> 410 ;
411 [label="X[5729] <= 0.38\ngini = 0.34\nsamples = 3475\nvalue = [4237, 1196]"] ;
410 -> 411 ;
412 [label="X[8992] <= 0.28\ngini = 0.34\nsamples = 3469\nvalue = [4234, 1191]"] ;
411 -> 412 ;
413 [label="X[9660] <= 0.2\ngini = 0.34\nsamples = 3415\nvalue = [4186, 1156]"] ;
412 -> 413 ;
414 [label="X[9932] <= 0.13\ngini = 0.34\nsamples = 3414\nvalue = [4186, 1153]"] ;
413 -> 414 ;
415 [label="X[14730] <= 0.46\ngini = 0.34\nsamples = 3409\nvalue = [4184, 1148]"] ;
414 -> 415 ;
416 [label="X[5874] <= 0.27\ngini = 0.34\nsamples = 3408\nvalue = [4184, 1146]"] ;
415 -> 416 ;
417 [label="X[10169] <= 0.39\ngini = 0.34\nsamples = 3396\nvalue = [4175, 1137]"] ;
416 -> 417 ;
418 [label="X[3327] <= 0.19\ngini = 0.34\nsamples = 3395\nvalue = [4175, 1135]"] ;
417 -> 418 ;
419 [label="X[7561] <= 0.25\ngini = 0.34\nsamples = 3394\nvalue = [4175, 1133]"] ;
418 -> 419 ;
420 [label="X[11133] <= 0.46\ngini = 0.33\nsamples = 3383\nvalue = [4167, 1125]"] ;
419 -> 420 ;
421 [label="X[7578] <= 0.18\ngini = 0.33\nsamples = 3382\nvalue = [4167, 1122]"] ;
420 -> 421 ;
422 [label="X[15137] <= 0.34\ngini = 0.33\nsamples = 3381\nvalue = [4167, 1120]"] ;
421 -> 422 ;
423 [label="X[6908] <= 0.25\ngini = 0.33\nsamples = 3380\nvalue = [4167, 1118]"] ;
422 -> 423 ;
424 [label="X[14984] <= 0.35\ngini = 0.33\nsamples = 3379\nvalue = [4167, 1116]"] ;
423 -> 424 ;
425 [label="X[9832] <= 0.5\ngini = 0.33\nsamples = 3371\nvalue = [4165, 1106]"] ;
424 -> 425 ;
426 [label="X[1443] <= 0.19\ngini = 0.33\nsamples = 3369\nvalue = [4165, 1103]"] ;
425 -> 426 ;
427 [label="X[1378] <= 0.18\ngini = 0.33\nsamples = 3366\nvalue = [4165, 1100]"] ;
426 -> 427 ;
428 [label="X[3429] <= 0.24\ngini = 0.33\nsamples = 3364\nvalue = [4165, 1096]"] ;
427 -> 428 ;
429 [label="X[2032] <= 0.18\ngini = 0.33\nsamples = 3363\nvalue = [4165, 1093]"] ;
428 -> 429 ;
430 [label="X[8655] <= 0.31\ngini = 0.33\nsamples = 3361\nvalue = [4165, 1090]"] ;
429 -> 430 ;
431 [label="X[14965] <= 0.24\ngini = 0.33\nsamples = 3352\nvalue = [4159, 1083]"] ;
430 -> 431 ;
432 [label="X[12440] <= 0.34\ngini = 0.33\nsamples = 3351\nvalue = [4159, 1081]"] ;
431 -> 432 ;
433 [label="X[8409] <= 0.27\ngini = 0.33\nsamples = 3346\nvalue = [4156, 1074]"] ;
432 -> 433 ;
434 [label="X[2553] <= 0.23\ngini = 0.33\nsamples = 3345\nvalue = [4156, 1072]"] ;
433 -> 434 ;
435 [label="X[1804] <= 0.39\ngini = 0.33\nsamples = 3344\nvalue = [4156, 1069]"] ;
434 -> 435 ;
436 [label="X[1172] <= 0.32\ngini = 0.32\nsamples = 3343\nvalue = [4156, 1066]"] ;
435 -> 436 ;
437 [label="X[9151] <= 0.15\ngini = 0.32\nsamples = 3341\nvalue = [4156, 1063]"] ;
436 -> 437 ;
438 [label="X[13251] <= 0.18\ngini = 0.32\nsamples = 3339\nvalue = [4156, 1060]"] ;
437 -> 438 ;
439 [label="X[3192] <= 0.3\ngini = 0.32\nsamples = 3337\nvalue = [4156, 1057]"] ;
438 -> 439 ;
440 [label="X[1097] <= 0.31\ngini = 0.32\nsamples = 3336\nvalue = [4156, 1055]"] ;
439 -> 440 ;
441 [label="X[1754] <= 0.16\ngini = 0.32\nsamples = 3331\nvalue = [4154, 1051]"] ;
440 -> 441 ;
442 [label="X[13182] <= 0.2\ngini = 0.32\nsamples = 3330\nvalue = [4154, 1049]"] ;
441 -> 442 ;
443 [label="X[247] <= 0.57\ngini = 0.32\nsamples = 3329\nvalue = [4154, 1046]"] ;
442 -> 443 ;
444 [label="X[13079] <= 0.54\ngini = 0.32\nsamples = 3327\nvalue = [4154, 1043]"] ;
443 -> 444 ;
445 [label="X[1954] <= 0.28\ngini = 0.32\nsamples = 3326\nvalue = [4154, 1040]"] ;
444 -> 445 ;
446 [label="X[4999] <= 0.43\ngini = 0.32\nsamples = 3321\nvalue = [4152, 1036]"] ;
445 -> 446 ;
447 [label="X[4529] <= 0.4\ngini = 0.32\nsamples = 3317\nvalue = [4149, 1031]"] ;
446 -> 447 ;
448 [label="X[11807] <= 0.4\ngini = 0.32\nsamples = 3315\nvalue = [4149, 1028]"] ;
447 -> 448 ;
449 [label="X[13665] <= 0.16\ngini = 0.32\nsamples = 3314\nvalue = [4149, 1026]"] ;
448 -> 449 ;
450 [label="X[5681] <= 0.46\ngini = 0.32\nsamples = 3313\nvalue = [4149, 1024]"] ;
449 -> 450 ;
451 [label="X[7596] <= 0.34\ngini = 0.32\nsamples = 3312\nvalue = [4149, 1022]"] ;
450 -> 451 ;
452 [label="X[1844] <= 0.24\ngini = 0.32\nsamples = 3307\nvalue = [4147, 1016]"] ;
451 -> 452 ;
453 [label="X[15409] <= 0.32\ngini = 0.32\nsamples = 3306\nvalue = [4147, 1014]"] ;
452 -> 453 ;
454 [label="X[12282] <= 0.19\ngini = 0.31\nsamples = 3299\nvalue = [4140, 1007]"] ;
453 -> 454 ;
455 [label="X[5096] <= 0.06\ngini = 0.31\nsamples = 3298\nvalue = [4140, 1005]"] ;
454 -> 455 ;
456 [label="X[13971] <= 0.24\ngini = 0.31\nsamples = 3242\nvalue = [4083, 974]"] ;
455 -> 456 ;
457 [label="X[4617] <= 0.34\ngini = 0.31\nsamples = 3221\nvalue = [4063, 961]"] ;
456 -> 457 ;
458 [label="X[4693] <= 0.37\ngini = 0.31\nsamples = 3219\nvalue = [4063, 956]"] ;
457 -> 458 ;
459 [label="X[986] <= 0.29\ngini = 0.31\nsamples = 3206\nvalue = [4053, 948]"] ;
458 -> 459 ;
460 [label="X[11702] <= 0.34\ngini = 0.31\nsamples = 3198\nvalue = [4049, 941]"] ;
459 -> 460 ;
461 [label="X[5032] <= 0.56\ngini = 0.31\nsamples = 3197\nvalue = [4049, 938]"] ;
460 -> 461 ;
462 [label="X[4777] <= 0.34\ngini = 0.3\nsamples = 3194\nvalue = [4049, 934]"] ;
461 -> 462 ;
463 [label="X[8356] <= 0.23\ngini = 0.3\nsamples = 3193\nvalue = [4049, 931]"] ;
462 -> 463 ;
464 [label="X[4999] <= 0.25\ngini = 0.3\nsamples = 3192\nvalue = [4049, 929]"] ;
463 -> 464 ;
465 [label="X[1523] <= 0.16\ngini = 0.31\nsamples = 3159\nvalue = [3992, 928]"] ;
464 -> 465 ;
466 [label="X[12765] <= 0.3\ngini = 0.31\nsamples = 3158\nvalue = [3992, 926]"] ;
465 -> 466 ;
467 [label="X[14521] <= 0.25\ngini = 0.31\nsamples = 3157\nvalue = [3992, 924]"] ;
466 -> 467 ;
468 [label="X[2365] <= 0.18\ngini = 0.3\nsamples = 3156\nvalue = [3992, 922]"] ;
467 -> 468 ;
469 [label="X[8951] <= 0.19\ngini = 0.3\nsamples = 3155\nvalue = [3992, 920]"] ;
468 -> 469 ;
470 [label="X[9665] <= 0.26\ngini = 0.31\nsamples = 3071\nvalue = [3868, 908]"] ;
469 -> 470 ;
471 [label="X[3410] <= 0.32\ngini = 0.31\nsamples = 3070\nvalue = [3868, 906]"] ;
470 -> 471 ;
472 [label="X[3785] <= 0.17\ngini = 0.31\nsamples = 3069\nvalue = [3868, 904]"] ;
471 -> 472 ;
473 [label="X[8469] <= 0.6\ngini = 0.31\nsamples = 3067\nvalue = [3868, 901]"] ;
472 -> 473 ;
474 [label="X[14205] <= 0.29\ngini = 0.31\nsamples = 3063\nvalue = [3867, 897]"] ;
473 -> 474 ;
475 [label="X[9199] <= 0.57\ngini = 0.3\nsamples = 2998\nvalue = [3807, 865]"] ;
474 -> 475 ;
476 [label="X[10881] <= 0.18\ngini = 0.3\nsamples = 2997\nvalue = [3807, 863]"] ;
475 -> 476 ;
477 [label="X[8902] <= 0.18\ngini = 0.3\nsamples = 2996\nvalue = [3807, 861]"] ;
476 -> 477 ;
478 [label="X[4999] <= 0.24\ngini = 0.3\nsamples = 2995\nvalue = [3807, 859]"] ;
477 -> 478 ;
479 [label="X[4742] <= 0.15\ngini = 0.3\nsamples = 2993\nvalue = [3807, 856]"] ;
478 -> 479 ;
480 [label="X[8625] <= 0.19\ngini = 0.3\nsamples = 2990\nvalue = [3807, 853]"] ;
479 -> 480 ;
481 [label="X[11060] <= 0.6\ngini = 0.3\nsamples = 2989\nvalue = [3807, 851]"] ;
480 -> 481 ;
482 [label="X[2038] <= 0.22\ngini = 0.3\nsamples = 2988\nvalue = [3807, 849]"] ;
481 -> 482 ;
483 [label="X[7666] <= 0.43\ngini = 0.3\nsamples = 2986\nvalue = [3807, 847]"] ;
482 -> 483 ;
484 [label="X[12115] <= 0.24\ngini = 0.3\nsamples = 2985\nvalue = [3807, 845]"] ;
483 -> 484 ;
485 [label="X[11852] <= 0.29\ngini = 0.3\nsamples = 2984\nvalue = [3807, 843]"] ;
484 -> 485 ;
486 [label="X[12311] <= 0.08\ngini = 0.3\nsamples = 2979\nvalue = [3806, 838]"] ;
485 -> 486 ;
487 [label="X[13849] <= 0.19\ngini = 0.3\nsamples = 2455\nvalue = [3086, 708]"] ;
486 -> 487 ;
488 [label="X[11164] <= 0.21\ngini = 0.3\nsamples = 2454\nvalue = [3086, 706]"] ;
487 -> 488 ;
489 [label="X[2282] <= 0.27\ngini = 0.3\nsamples = 2453\nvalue = [3086, 705]"] ;
488 -> 489 ;
490 [label="X[1288] <= 0.18\ngini = 0.3\nsamples = 2451\nvalue = [3086, 703]"] ;
489 -> 490 ;
491 [label="X[4952] <= 0.69\ngini = 0.3\nsamples = 2450\nvalue = [3086, 701]"] ;
490 -> 491 ;
492 [label="X[3932] <= 0.44\ngini = 0.3\nsamples = 2449\nvalue = [3086, 699]"] ;
491 -> 492 ;
493 [label="X[11479] <= 0.22\ngini = 0.3\nsamples = 2447\nvalue = [3086, 696]"] ;
492 -> 493 ;
494 [label="X[5188] <= 0.21\ngini = 0.3\nsamples = 2446\nvalue = [3086, 693]"] ;
493 -> 494 ;
495 [label="X[14624] <= 0.42\ngini = 0.3\nsamples = 2445\nvalue = [3086, 691]"] ;
494 -> 495 ;
496 [label="X[10250] <= 0.48\ngini = 0.3\nsamples = 2444\nvalue = [3086, 689]"] ;
495 -> 496 ;
497 [label="X[11220] <= 0.53\ngini = 0.3\nsamples = 2443\nvalue = [3086, 687]"] ;
496 -> 497 ;
498 [label="X[13116] <= 0.07\ngini = 0.3\nsamples = 2442\nvalue = [3086, 685]"] ;
497 -> 498 ;
499 [label="X[9075] <= 0.35\ngini = 0.3\nsamples = 2368\nvalue = [2968, 675]"] ;
498 -> 499 ;
500 [label="X[12407] <= 0.38\ngini = 0.3\nsamples = 2366\nvalue = [2968, 672]"] ;
499 -> 500 ;
501 [label="X[11933] <= 0.26\ngini = 0.3\nsamples = 2359\nvalue = [2964, 665]"] ;
500 -> 501 ;
502 [label="X[9084] <= 0.49\ngini = 0.29\nsamples = 2317\nvalue = [2924, 641]"] ;
501 -> 502 ;
503 [label="X[7235] <= 0.34\ngini = 0.29\nsamples = 2316\nvalue = [2924, 639]"] ;
502 -> 503 ;
504 [label="X[11752] <= 0.17\ngini = 0.29\nsamples = 2314\nvalue = [2924, 637]"] ;
503 -> 504 ;
505 [label="X[4204] <= 0.25\ngini = 0.29\nsamples = 2312\nvalue = [2924, 634]"] ;
504 -> 505 ;
506 [label="X[1633] <= 0.27\ngini = 0.29\nsamples = 2311\nvalue = [2924, 632]"] ;
505 -> 506 ;
507 [label="X[12255] <= 0.12\ngini = 0.29\nsamples = 2307\nvalue = [2922, 628]"] ;
506 -> 507 ;
508 [label="X[10039] <= 0.24\ngini = 0.29\nsamples = 2302\nvalue = [2920, 624]"] ;
507 -> 508 ;
509 [label="X[10194] <= 0.18\ngini = 0.29\nsamples = 2301\nvalue = [2920, 622]"] ;
508 -> 509 ;
510 [label="X[14174] <= 0.19\ngini = 0.29\nsamples = 2299\nvalue = [2920, 620]"] ;
509 -> 510 ;
511 [label="X[10094] <= 0.2\ngini = 0.29\nsamples = 2298\nvalue = [2920, 618]"] ;
510 -> 511 ;
512 [label="X[12817] <= 0.2\ngini = 0.29\nsamples = 2297\nvalue = [2920, 616]"] ;
511 -> 512 ;
513 [label="X[11528] <= 0.19\ngini = 0.29\nsamples = 2294\nvalue = [2919, 614]"] ;
512 -> 513 ;
514 [label="X[1956] <= 0.38\ngini = 0.29\nsamples = 2291\nvalue = [2918, 610]"] ;
513 -> 514 ;
515 [label="X[13193] <= 0.18\ngini = 0.29\nsamples = 2289\nvalue = [2918, 607]"] ;
514 -> 515 ;
516 [label="X[601] <= 0.35\ngini = 0.28\nsamples = 2287\nvalue = [2917, 605]"] ;
515 -> 516 ;
517 [label="X[12122] <= 0.21\ngini = 0.28\nsamples = 2286\nvalue = [2917, 603]"] ;
516 -> 517 ;
518 [label="X[250] <= 0.24\ngini = 0.28\nsamples = 2285\nvalue = [2917, 601]"] ;
517 -> 518 ;
519 [label="X[5731] <= 0.29\ngini = 0.28\nsamples = 2284\nvalue = [2917, 599]"] ;
518 -> 519 ;
520 [label="X[3031] <= 0.27\ngini = 0.28\nsamples = 2283\nvalue = [2917, 597]"] ;
519 -> 520 ;
521 [label="X[11863] <= 0.2\ngini = 0.28\nsamples = 2281\nvalue = [2917, 594]"] ;
520 -> 521 ;
522 [label="X[2989] <= 0.19\ngini = 0.28\nsamples = 2280\nvalue = [2917, 592]"] ;
521 -> 522 ;
523 [label="X[5954] <= 0.49\ngini = 0.28\nsamples = 2279\nvalue = [2917, 590]"] ;
522 -> 523 ;
524 [label="X[7492] <= 0.3\ngini = 0.28\nsamples = 2276\nvalue = [2915, 585]"] ;
523 -> 524 ;
525 [label="X[9648] <= 0.48\ngini = 0.28\nsamples = 2249\nvalue = [2863, 585]"] ;
524 -> 525 ;
526 [label="X[1801] <= 0.18\ngini = 0.28\nsamples = 2248\nvalue = [2863, 583]"] ;
525 -> 526 ;
527 [label="X[14544] <= 0.41\ngini = 0.28\nsamples = 2247\nvalue = [2863, 581]"] ;
526 -> 527 ;
528 [label="X[4121] <= 0.3\ngini = 0.28\nsamples = 2246\nvalue = [2863, 580]"] ;
527 -> 528 ;
529 [label="X[7325] <= 0.13\ngini = 0.28\nsamples = 2245\nvalue = [2863, 577]"] ;
528 -> 529 ;
530 [label="X[7598] <= 0.33\ngini = 0.28\nsamples = 2244\nvalue = [2863, 576]"] ;
529 -> 530 ;
531 [label="X[3275] <= 0.22\ngini = 0.28\nsamples = 2243\nvalue = [2863, 574]"] ;
530 -> 531 ;
532 [label="X[5832] <= 0.21\ngini = 0.28\nsamples = 2242\nvalue = [2863, 572]"] ;
531 -> 532 ;
533 [label="X[11787] <= 0.33\ngini = 0.28\nsamples = 2241\nvalue = [2863, 571]"] ;
532 -> 533 ;
534 [label="X[13079] <= 0.29\ngini = 0.28\nsamples = 2240\nvalue = [2863, 569]"] ;
533 -> 534 ;
535 [label="X[7584] <= 0.31\ngini = 0.28\nsamples = 2236\nvalue = [2863, 565]"] ;
534 -> 535 ;
536 [label="X[2300] <= 0.51\ngini = 0.27\nsamples = 2234\nvalue = [2863, 562]"] ;
535 -> 536 ;
537 [label="X[409] <= 0.19\ngini = 0.27\nsamples = 2232\nvalue = [2862, 560]"] ;
536 -> 537 ;
538 [label="X[14192] <= 0.24\ngini = 0.27\nsamples = 2230\nvalue = [2862, 556]"] ;
537 -> 538 ;
539 [label="X[9609] <= 0.17\ngini = 0.27\nsamples = 2229\nvalue = [2862, 555]"] ;
538 -> 539 ;
540 [label="X[5554] <= 0.4\ngini = 0.27\nsamples = 2227\nvalue = [2862, 553]"] ;
539 -> 540 ;
541 [label="X[13238] <= 0.19\ngini = 0.27\nsamples = 2225\nvalue = [2861, 550]"] ;
540 -> 541 ;
542 [label="X[8438] <= 0.57\ngini = 0.27\nsamples = 2223\nvalue = [2861, 548]"] ;
541 -> 542 ;
543 [label="X[4406] <= 0.33\ngini = 0.27\nsamples = 2222\nvalue = [2861, 546]"] ;
542 -> 543 ;
544 [label="X[6656] <= 0.2\ngini = 0.27\nsamples = 2219\nvalue = [2860, 542]"] ;
543 -> 544 ;
545 [label="X[14979] <= 0.21\ngini = 0.27\nsamples = 2218\nvalue = [2860, 541]"] ;
544 -> 545 ;
546 [label="X[9994] <= 0.16\ngini = 0.27\nsamples = 2217\nvalue = [2860, 539]"] ;
545 -> 546 ;
547 [label="X[9328] <= 0.2\ngini = 0.27\nsamples = 2216\nvalue = [2860, 537]"] ;
546 -> 547 ;
548 [label="X[4845] <= 0.48\ngini = 0.27\nsamples = 2215\nvalue = [2860, 535]"] ;
547 -> 548 ;
549 [label="X[907] <= 0.23\ngini = 0.26\nsamples = 2214\nvalue = [2860, 533]"] ;
548 -> 549 ;
550 [label="X[13876] <= 0.35\ngini = 0.26\nsamples = 2213\nvalue = [2860, 531]"] ;
549 -> 550 ;
551 [label="X[1479] <= 0.51\ngini = 0.26\nsamples = 2209\nvalue = [2860, 526]"] ;
550 -> 551 ;
552 [label="X[3167] <= 0.19\ngini = 0.26\nsamples = 2208\nvalue = [2860, 524]"] ;
551 -> 552 ;
553 [label="X[6374] <= 0.31\ngini = 0.26\nsamples = 2207\nvalue = [2860, 523]"] ;
552 -> 553 ;
554 [label="X[12859] <= 0.15\ngini = 0.26\nsamples = 2206\nvalue = [2860, 521]"] ;
553 -> 554 ;
555 [label="X[10364] <= 0.38\ngini = 0.26\nsamples = 2205\nvalue = [2860, 519]"] ;
554 -> 555 ;
556 [label="X[7203] <= 0.37\ngini = 0.26\nsamples = 2203\nvalue = [2860, 517]"] ;
555 -> 556 ;
557 [label="X[12899] <= 0.32\ngini = 0.26\nsamples = 2201\nvalue = [2860, 515]"] ;
556 -> 557 ;
558 [label="X[5488] <= 0.32\ngini = 0.26\nsamples = 2195\nvalue = [2858, 510]"] ;
557 -> 558 ;
559 [label="X[11482] <= 0.45\ngini = 0.26\nsamples = 2193\nvalue = [2858, 508]"] ;
558 -> 559 ;
560 [label="X[5552] <= 0.37\ngini = 0.26\nsamples = 2191\nvalue = [2858, 505]"] ;
559 -> 560 ;
561 [label="X[1186] <= 0.18\ngini = 0.25\nsamples = 2188\nvalue = [2857, 500]"] ;
560 -> 561 ;
562 [label="X[13942] <= 0.5\ngini = 0.25\nsamples = 2187\nvalue = [2857, 498]"] ;
561 -> 562 ;
563 [label="X[12709] <= 0.37\ngini = 0.25\nsamples = 2186\nvalue = [2857, 496]"] ;
562 -> 563 ;
564 [label="X[3301] <= 0.4\ngini = 0.25\nsamples = 2184\nvalue = [2857, 493]"] ;
563 -> 564 ;
565 [label="X[6117] <= 0.32\ngini = 0.25\nsamples = 2183\nvalue = [2857, 492]"] ;
564 -> 565 ;
566 [label="X[10644] <= 0.19\ngini = 0.25\nsamples = 2182\nvalue = [2857, 490]"] ;
565 -> 566 ;
567 [label="X[3122] <= 0.45\ngini = 0.25\nsamples = 2181\nvalue = [2857, 488]"] ;
566 -> 567 ;
568 [label="X[12868] <= 0.3\ngini = 0.25\nsamples = 2180\nvalue = [2857, 486]"] ;
567 -> 568 ;
569 [label="X[4786] <= 0.83\ngini = 0.25\nsamples = 2173\nvalue = [2854, 482]"] ;
568 -> 569 ;
570 [label="X[13820] <= 0.44\ngini = 0.25\nsamples = 2172\nvalue = [2854, 480]"] ;
569 -> 570 ;
571 [label="X[13905] <= 0.26\ngini = 0.25\nsamples = 2171\nvalue = [2854, 478]"] ;
570 -> 571 ;
572 [label="X[6231] <= 0.31\ngini = 0.25\nsamples = 2170\nvalue = [2854, 476]"] ;
571 -> 572 ;
573 [label="X[8] <= 0.28\ngini = 0.24\nsamples = 2169\nvalue = [2854, 474]"] ;
572 -> 573 ;
574 [label="X[279] <= 0.21\ngini = 0.24\nsamples = 2165\nvalue = [2853, 470]"] ;
573 -> 574 ;
575 [label="X[6033] <= 0.21\ngini = 0.24\nsamples = 2164\nvalue = [2853, 468]"] ;
574 -> 575 ;
576 [label="X[14030] <= 0.38\ngini = 0.24\nsamples = 2163\nvalue = [2853, 466]"] ;
575 -> 576 ;
577 [label="X[11699] <= 0.55\ngini = 0.24\nsamples = 2155\nvalue = [2849, 461]"] ;
576 -> 577 ;
578 [label="X[13469] <= 0.23\ngini = 0.24\nsamples = 2154\nvalue = [2849, 459]"] ;
577 -> 578 ;
579 [label="X[585] <= 0.34\ngini = 0.24\nsamples = 2152\nvalue = [2849, 457]"] ;
578 -> 579 ;
580 [label="X[12925] <= 0.44\ngini = 0.24\nsamples = 2149\nvalue = [2848, 455]"] ;
579 -> 580 ;
581 [label="X[10176] <= 0.18\ngini = 0.24\nsamples = 2142\nvalue = [2843, 451]"] ;
580 -> 581 ;
582 [label="X[7623] <= 0.22\ngini = 0.24\nsamples = 2141\nvalue = [2843, 450]"] ;
581 -> 582 ;
583 [label="X[10328] <= 0.24\ngini = 0.23\nsamples = 2127\nvalue = [2829, 441]"] ;
582 -> 583 ;
584 [label="X[5860] <= 0.2\ngini = 0.23\nsamples = 2126\nvalue = [2829, 440]"] ;
583 -> 584 ;
585 [label="X[7231] <= 0.18\ngini = 0.23\nsamples = 2125\nvalue = [2829, 438]"] ;
584 -> 585 ;
586 [label="X[15372] <= 0.33\ngini = 0.23\nsamples = 2124\nvalue = [2829, 437]"] ;
585 -> 586 ;
587 [label="X[13476] <= 0.16\ngini = 0.23\nsamples = 2122\nvalue = [2829, 435]"] ;
586 -> 587 ;
588 [label="X[12367] <= 0.19\ngini = 0.23\nsamples = 2120\nvalue = [2829, 433]"] ;
587 -> 588 ;
589 [label="X[14706] <= 0.35\ngini = 0.23\nsamples = 2119\nvalue = [2829, 432]"] ;
588 -> 589 ;
590 [label="X[3933] <= 0.37\ngini = 0.23\nsamples = 2118\nvalue = [2829, 429]"] ;
589 -> 590 ;
591 [label="X[6274] <= 0.37\ngini = 0.23\nsamples = 2117\nvalue = [2829, 427]"] ;
590 -> 591 ;
592 [label="X[12556] <= 0.32\ngini = 0.23\nsamples = 2114\nvalue = [2828, 423]"] ;
591 -> 592 ;
593 [label="X[15118] <= 0.45\ngini = 0.23\nsamples = 2113\nvalue = [2828, 421]"] ;
592 -> 593 ;
594 [label="X[4761] <= 0.34\ngini = 0.22\nsamples = 2112\nvalue = [2828, 419]"] ;
593 -> 594 ;
595 [label="X[5009] <= 0.34\ngini = 0.22\nsamples = 2111\nvalue = [2828, 417]"] ;
594 -> 595 ;
596 [label="X[1560] <= 0.32\ngini = 0.22\nsamples = 2109\nvalue = [2827, 415]"] ;
595 -> 596 ;
597 [label="X[14678] <= 0.19\ngini = 0.22\nsamples = 2108\nvalue = [2827, 414]"] ;
596 -> 597 ;
598 [label="X[2544] <= 0.49\ngini = 0.22\nsamples = 2107\nvalue = [2827, 412]"] ;
597 -> 598 ;
599 [label="X[2978] <= 0.15\ngini = 0.22\nsamples = 2104\nvalue = [2826, 409]"] ;
598 -> 599 ;
600 [label="X[15059] <= 0.23\ngini = 0.22\nsamples = 2103\nvalue = [2826, 408]"] ;
599 -> 600 ;
601 [label="X[15275] <= 0.31\ngini = 0.22\nsamples = 2102\nvalue = [2826, 407]"] ;
600 -> 601 ;
602 [label="X[2884] <= 0.16\ngini = 0.22\nsamples = 2101\nvalue = [2826, 406]"] ;
601 -> 602 ;
603 [label="X[10103] <= 0.32\ngini = 0.22\nsamples = 2096\nvalue = [2824, 403]"] ;
602 -> 603 ;
604 [label="X[1243] <= 0.22\ngini = 0.22\nsamples = 2094\nvalue = [2824, 401]"] ;
603 -> 604 ;
605 [label="X[4582] <= 0.25\ngini = 0.22\nsamples = 2093\nvalue = [2824, 400]"] ;
604 -> 605 ;
606 [label="X[8915] <= 0.38\ngini = 0.22\nsamples = 2092\nvalue = [2824, 399]"] ;
605 -> 606 ;
607 [label="X[3061] <= 0.16\ngini = 0.22\nsamples = 2091\nvalue = [2824, 397]"] ;
606 -> 607 ;
608 [label="X[8603] <= 0.38\ngini = 0.22\nsamples = 2090\nvalue = [2824, 396]"] ;
607 -> 608 ;
609 [label="X[8364] <= 0.68\ngini = 0.22\nsamples = 2089\nvalue = [2824, 395]"] ;
608 -> 609 ;
610 [label="X[4735] <= 0.21\ngini = 0.21\nsamples = 2088\nvalue = [2824, 392]"] ;
609 -> 610 ;
611 [label="X[3947] <= 0.18\ngini = 0.21\nsamples = 2087\nvalue = [2824, 391]"] ;
610 -> 611 ;
612 [label="X[3516] <= 0.3\ngini = 0.21\nsamples = 2082\nvalue = [2822, 388]"] ;
611 -> 612 ;
613 [label="X[6008] <= 0.33\ngini = 0.21\nsamples = 2076\nvalue = [2819, 385]"] ;
612 -> 613 ;
614 [label="X[8932] <= 0.3\ngini = 0.21\nsamples = 2075\nvalue = [2819, 383]"] ;
613 -> 614 ;
615 [label="X[6238] <= 0.38\ngini = 0.21\nsamples = 2073\nvalue = [2818, 381]"] ;
614 -> 615 ;
616 [label="X[9508] <= 0.34\ngini = 0.21\nsamples = 2071\nvalue = [2818, 379]"] ;
615 -> 616 ;
617 [label="X[4012] <= 0.38\ngini = 0.21\nsamples = 2070\nvalue = [2818, 377]"] ;
616 -> 617 ;
618 [label="X[1166] <= 0.63\ngini = 0.21\nsamples = 2069\nvalue = [2818, 375]"] ;
617 -> 618 ;
619 [label="X[14062] <= 0.2\ngini = 0.21\nsamples = 2068\nvalue = [2818, 373]"] ;
618 -> 619 ;
620 [label="X[4193] <= 0.36\ngini = 0.21\nsamples = 2067\nvalue = [2818, 372]"] ;
619 -> 620 ;
621 [label="X[8245] <= 0.5\ngini = 0.21\nsamples = 2066\nvalue = [2818, 371]"] ;
620 -> 621 ;
622 [label="X[568] <= 0.22\ngini = 0.2\nsamples = 2063\nvalue = [2817, 369]"] ;
621 -> 622 ;
623 [label="X[10266] <= 0.31\ngini = 0.2\nsamples = 2062\nvalue = [2817, 368]"] ;
622 -> 623 ;
624 [label="X[2355] <= 0.39\ngini = 0.2\nsamples = 2061\nvalue = [2817, 366]"] ;
623 -> 624 ;
625 [label="X[5634] <= 0.2\ngini = 0.2\nsamples = 2060\nvalue = [2817, 365]"] ;
624 -> 625 ;
626 [label="X[4885] <= 0.18\ngini = 0.2\nsamples = 2059\nvalue = [2817, 364]"] ;
625 -> 626 ;
627 [label="X[8928] <= 0.23\ngini = 0.2\nsamples = 2058\nvalue = [2817, 363]"] ;
626 -> 627 ;
628 [label="X[160] <= 0.32\ngini = 0.2\nsamples = 2055\nvalue = [2816, 361]"] ;
627 -> 628 ;
629 [label="X[14329] <= 0.31\ngini = 0.2\nsamples = 2054\nvalue = [2816, 360]"] ;
628 -> 629 ;
630 [label="X[12682] <= 0.19\ngini = 0.2\nsamples = 2053\nvalue = [2816, 359]"] ;
629 -> 630 ;
631 [label="X[7232] <= 0.45\ngini = 0.2\nsamples = 2052\nvalue = [2816, 357]"] ;
630 -> 631 ;
632 [label="X[13030] <= 0.22\ngini = 0.2\nsamples = 2051\nvalue = [2816, 356]"] ;
631 -> 632 ;
633 [label="X[9139] <= 0.77\ngini = 0.2\nsamples = 2050\nvalue = [2816, 355]"] ;
632 -> 633 ;
634 [label="X[11761] <= 0.38\ngini = 0.2\nsamples = 2049\nvalue = [2816, 353]"] ;
633 -> 634 ;
635 [label="X[1803] <= 0.17\ngini = 0.2\nsamples = 2048\nvalue = [2816, 351]"] ;
634 -> 635 ;
636 [label="X[12799] <= 0.32\ngini = 0.2\nsamples = 2046\nvalue = [2816, 349]"] ;
635 -> 636 ;
637 [label="X[8012] <= 0.2\ngini = 0.2\nsamples = 2045\nvalue = [2816, 348]"] ;
636 -> 637 ;
638 [label="X[2983] <= 0.24\ngini = 0.19\nsamples = 2044\nvalue = [2816, 346]"] ;
637 -> 638 ;
639 [label="X[6486] <= 0.17\ngini = 0.19\nsamples = 2043\nvalue = [2816, 344]"] ;
638 -> 639 ;
640 [label="X[11659] <= 0.63\ngini = 0.19\nsamples = 2042\nvalue = [2816, 343]"] ;
639 -> 640 ;
641 [label="X[8753] <= 0.26\ngini = 0.19\nsamples = 2041\nvalue = [2816, 342]"] ;
640 -> 641 ;
642 [label="X[7689] <= 0.6\ngini = 0.19\nsamples = 2039\nvalue = [2816, 339]"] ;
641 -> 642 ;
643 [label="X[3640] <= 0.35\ngini = 0.19\nsamples = 2038\nvalue = [2816, 337]"] ;
642 -> 643 ;
644 [label="X[14733] <= 0.26\ngini = 0.19\nsamples = 2032\nvalue = [2810, 333]"] ;
643 -> 644 ;
645 [label="X[558] <= 0.34\ngini = 0.19\nsamples = 2031\nvalue = [2810, 331]"] ;
644 -> 645 ;
646 [label="X[4102] <= 0.4\ngini = 0.19\nsamples = 2030\nvalue = [2810, 330]"] ;
645 -> 646 ;
647 [label="X[6360] <= 0.58\ngini = 0.19\nsamples = 2029\nvalue = [2810, 329]"] ;
646 -> 647 ;
648 [label="X[4225] <= 0.21\ngini = 0.19\nsamples = 2028\nvalue = [2810, 328]"] ;
647 -> 648 ;
649 [label="X[5157] <= 0.39\ngini = 0.19\nsamples = 2027\nvalue = [2810, 327]"] ;
648 -> 649 ;
650 [label="X[105] <= 0.18\ngini = 0.19\nsamples = 2026\nvalue = [2810, 326]"] ;
649 -> 650 ;
651 [label="X[8470] <= 0.27\ngini = 0.19\nsamples = 2025\nvalue = [2810, 325]"] ;
650 -> 651 ;
652 [label="X[11811] <= 0.76\ngini = 0.19\nsamples = 2024\nvalue = [2810, 324]"] ;
651 -> 652 ;
653 [label="X[9754] <= 0.24\ngini = 0.18\nsamples = 2022\nvalue = [2810, 322]"] ;
652 -> 653 ;
654 [label="X[9163] <= 0.23\ngini = 0.18\nsamples = 2020\nvalue = [2809, 320]"] ;
653 -> 654 ;
655 [label="X[3401] <= 0.15\ngini = 0.18\nsamples = 2019\nvalue = [2809, 319]"] ;
654 -> 655 ;
656 [label="X[63] <= 0.19\ngini = 0.18\nsamples = 2018\nvalue = [2809, 318]"] ;
655 -> 656 ;
657 [label="X[11935] <= 0.2\ngini = 0.18\nsamples = 2017\nvalue = [2809, 316]"] ;
656 -> 657 ;
658 [label="X[5629] <= 0.15\ngini = 0.18\nsamples = 2016\nvalue = [2809, 315]"] ;
657 -> 658 ;
659 [label="X[3749] <= 0.26\ngini = 0.18\nsamples = 2015\nvalue = [2809, 314]"] ;
658 -> 659 ;
660 [label="X[5625] <= 0.34\ngini = 0.18\nsamples = 2014\nvalue = [2809, 313]"] ;
659 -> 660 ;
661 [label="X[15126] <= 0.24\ngini = 0.18\nsamples = 2012\nvalue = [2808, 311]"] ;
660 -> 661 ;
662 [label="X[3045] <= 0.41\ngini = 0.18\nsamples = 2011\nvalue = [2808, 310]"] ;
661 -> 662 ;
663 [label="X[9843] <= 0.17\ngini = 0.18\nsamples = 2010\nvalue = [2808, 309]"] ;
662 -> 663 ;
664 [label="X[3504] <= 0.58\ngini = 0.18\nsamples = 2009\nvalue = [2808, 308]"] ;
663 -> 664 ;
665 [label="X[8061] <= 0.39\ngini = 0.18\nsamples = 2008\nvalue = [2808, 307]"] ;
664 -> 665 ;
666 [label="X[14456] <= 0.46\ngini = 0.18\nsamples = 2007\nvalue = [2808, 306]"] ;
665 -> 666 ;
667 [label="X[13656] <= 0.49\ngini = 0.18\nsamples = 2006\nvalue = [2808, 305]"] ;
666 -> 667 ;
668 [label="X[5481] <= 0.14\ngini = 0.18\nsamples = 2005\nvalue = [2808, 304]"] ;
667 -> 668 ;
669 [label="X[5460] <= 0.56\ngini = 0.18\nsamples = 2004\nvalue = [2808, 303]"] ;
668 -> 669 ;
670 [label="X[8148] <= 0.37\ngini = 0.17\nsamples = 2002\nvalue = [2807, 301]"] ;
669 -> 670 ;
671 [label="X[6209] <= 0.2\ngini = 0.17\nsamples = 2000\nvalue = [2807, 299]"] ;
670 -> 671 ;
672 [label="X[14019] <= 0.65\ngini = 0.17\nsamples = 1999\nvalue = [2807, 298]"] ;
671 -> 672 ;
673 [label="X[4123] <= 0.38\ngini = 0.17\nsamples = 1998\nvalue = [2807, 297]"] ;
672 -> 673 ;
674 [label="X[12828] <= 0.43\ngini = 0.17\nsamples = 1997\nvalue = [2807, 296]"] ;
673 -> 674 ;
675 [label="X[8431] <= 0.32\ngini = 0.17\nsamples = 1996\nvalue = [2807, 295]"] ;
674 -> 675 ;
676 [label="X[10365] <= 0.34\ngini = 0.17\nsamples = 1995\nvalue = [2807, 293]"] ;
675 -> 676 ;
677 [label="X[13487] <= 0.14\ngini = 0.17\nsamples = 1994\nvalue = [2807, 292]"] ;
676 -> 677 ;
678 [label="X[11933] <= 0.22\ngini = 0.17\nsamples = 1993\nvalue = [2807, 291]"] ;
677 -> 678 ;
679 [label="X[6677] <= 0.19\ngini = 0.17\nsamples = 1973\nvalue = [2780, 284]"] ;
678 -> 679 ;
680 [label="X[10258] <= 0.34\ngini = 0.17\nsamples = 1972\nvalue = [2780, 283]"] ;
679 -> 680 ;
681 [label="X[2263] <= 0.23\ngini = 0.17\nsamples = 1971\nvalue = [2780, 282]"] ;
680 -> 681 ;
682 [label="X[10827] <= 0.21\ngini = 0.17\nsamples = 1970\nvalue = [2780, 281]"] ;
681 -> 682 ;
683 [label="X[11646] <= 0.4\ngini = 0.17\nsamples = 1969\nvalue = [2780, 280]"] ;
682 -> 683 ;
684 [label="X[2260] <= 0.37\ngini = 0.17\nsamples = 1968\nvalue = [2780, 279]"] ;
683 -> 684 ;
685 [label="X[9180] <= 0.34\ngini = 0.16\nsamples = 1965\nvalue = [2779, 277]"] ;
684 -> 685 ;
686 [label="X[3281] <= 0.28\ngini = 0.16\nsamples = 1963\nvalue = [2779, 275]"] ;
685 -> 686 ;
687 [label="X[9861] <= 0.35\ngini = 0.16\nsamples = 1962\nvalue = [2779, 273]"] ;
686 -> 687 ;
688 [label="X[2112] <= 0.31\ngini = 0.16\nsamples = 1961\nvalue = [2779, 272]"] ;
687 -> 688 ;
689 [label="X[2364] <= 0.2\ngini = 0.16\nsamples = 1960\nvalue = [2779, 271]"] ;
688 -> 689 ;
690 [label="X[2075] <= 0.33\ngini = 0.16\nsamples = 1959\nvalue = [2779, 270]"] ;
689 -> 690 ;
691 [label="X[7146] <= 0.24\ngini = 0.16\nsamples = 1958\nvalue = [2779, 269]"] ;
690 -> 691 ;
692 [label="X[4805] <= 0.29\ngini = 0.16\nsamples = 1957\nvalue = [2779, 268]"] ;
691 -> 692 ;
693 [label="X[8970] <= 0.14\ngini = 0.16\nsamples = 1956\nvalue = [2779, 267]"] ;
692 -> 693 ;
694 [label="X[13990] <= 0.22\ngini = 0.16\nsamples = 1955\nvalue = [2779, 266]"] ;
693 -> 694 ;
695 [label="X[554] <= 0.38\ngini = 0.16\nsamples = 1954\nvalue = [2779, 265]"] ;
694 -> 695 ;
696 [label="X[11805] <= 0.45\ngini = 0.16\nsamples = 1952\nvalue = [2778, 263]"] ;
695 -> 696 ;
697 [label="X[11381] <= 0.32\ngini = 0.16\nsamples = 1951\nvalue = [2778, 262]"] ;
696 -> 697 ;
698 [label="X[7039] <= 0.23\ngini = 0.16\nsamples = 1950\nvalue = [2778, 261]"] ;
697 -> 698 ;
699 [label="X[11787] <= 0.28\ngini = 0.16\nsamples = 1949\nvalue = [2778, 260]"] ;
698 -> 699 ;
700 [label="X[15120] <= 0.2\ngini = 0.16\nsamples = 1943\nvalue = [2774, 257]"] ;
699 -> 700 ;
701 [label="X[13620] <= 0.21\ngini = 0.15\nsamples = 1942\nvalue = [2774, 255]"] ;
700 -> 701 ;
702 [label="X[13961] <= 0.53\ngini = 0.15\nsamples = 1941\nvalue = [2774, 254]"] ;
701 -> 702 ;
703 [label="X[13562] <= 0.2\ngini = 0.15\nsamples = 1940\nvalue = [2774, 252]"] ;
702 -> 703 ;
704 [label="X[13631] <= 0.38\ngini = 0.15\nsamples = 1939\nvalue = [2774, 251]"] ;
703 -> 704 ;
705 [label="X[1883] <= 0.41\ngini = 0.15\nsamples = 1938\nvalue = [2774, 250]"] ;
704 -> 705 ;
706 [label="X[4710] <= 0.27\ngini = 0.15\nsamples = 1937\nvalue = [2774, 249]"] ;
705 -> 706 ;
707 [label="X[12217] <= 0.32\ngini = 0.15\nsamples = 1936\nvalue = [2774, 248]"] ;
706 -> 707 ;
708 [label="X[10679] <= 0.27\ngini = 0.15\nsamples = 1933\nvalue = [2773, 246]"] ;
707 -> 708 ;
709 [label="X[13250] <= 0.36\ngini = 0.15\nsamples = 1932\nvalue = [2773, 245]"] ;
708 -> 709 ;
710 [label="X[3887] <= 0.36\ngini = 0.15\nsamples = 1931\nvalue = [2773, 244]"] ;
709 -> 710 ;
711 [label="X[4496] <= 0.32\ngini = 0.15\nsamples = 1930\nvalue = [2773, 243]"] ;
710 -> 711 ;
712 [label="X[2912] <= 0.24\ngini = 0.15\nsamples = 1929\nvalue = [2773, 242]"] ;
711 -> 712 ;
713 [label="X[7912] <= 0.51\ngini = 0.15\nsamples = 1928\nvalue = [2773, 241]"] ;
712 -> 713 ;
714 [label="X[435] <= 0.42\ngini = 0.15\nsamples = 1927\nvalue = [2773, 240]"] ;
713 -> 714 ;
715 [label="X[1202] <= 0.27\ngini = 0.15\nsamples = 1923\nvalue = [2770, 239]"] ;
714 -> 715 ;
716 [label="X[13583] <= 0.27\ngini = 0.15\nsamples = 1922\nvalue = [2770, 238]"] ;
715 -> 716 ;
717 [label="X[710] <= 0.17\ngini = 0.15\nsamples = 1921\nvalue = [2770, 237]"] ;
716 -> 717 ;
718 [label="X[10251] <= 0.43\ngini = 0.14\nsamples = 1920\nvalue = [2770, 236]"] ;
717 -> 718 ;
719 [label="X[15345] <= 0.31\ngini = 0.14\nsamples = 1919\nvalue = [2770, 235]"] ;
718 -> 719 ;
720 [label="X[12219] <= 0.17\ngini = 0.14\nsamples = 1918\nvalue = [2770, 234]"] ;
719 -> 720 ;
721 [label="X[8190] <= 0.19\ngini = 0.14\nsamples = 1917\nvalue = [2770, 233]"] ;
720 -> 721 ;
722 [label="X[4238] <= 0.32\ngini = 0.14\nsamples = 1916\nvalue = [2770, 232]"] ;
721 -> 722 ;
723 [label="X[12779] <= 0.58\ngini = 0.14\nsamples = 1913\nvalue = [2767, 231]"] ;
722 -> 723 ;
724 [label="X[5088] <= 0.16\ngini = 0.14\nsamples = 1912\nvalue = [2767, 230]"] ;
723 -> 724 ;
725 [label="X[12983] <= 0.25\ngini = 0.14\nsamples = 1911\nvalue = [2767, 229]"] ;
724 -> 725 ;
726 [label="X[6635] <= 0.42\ngini = 0.14\nsamples = 1910\nvalue = [2767, 228]"] ;
725 -> 726 ;
727 [label="X[1224] <= 0.33\ngini = 0.14\nsamples = 1909\nvalue = [2767, 226]"] ;
726 -> 727 ;
728 [label="X[7716] <= 0.44\ngini = 0.14\nsamples = 1908\nvalue = [2767, 225]"] ;
727 -> 728 ;
729 [label="X[13325] <= 0.63\ngini = 0.14\nsamples = 1907\nvalue = [2767, 224]"] ;
728 -> 729 ;
730 [label="X[11926] <= 0.17\ngini = 0.14\nsamples = 1906\nvalue = [2767, 222]"] ;
729 -> 730 ;
731 [label="X[5202] <= 0.18\ngini = 0.14\nsamples = 1903\nvalue = [2766, 220]"] ;
730 -> 731 ;
732 [label="X[7965] <= 0.5\ngini = 0.14\nsamples = 1902\nvalue = [2766, 219]"] ;
731 -> 732 ;
733 [label="X[13094] <= 0.66\ngini = 0.14\nsamples = 1901\nvalue = [2766, 218]"] ;
732 -> 733 ;
734 [label="X[930] <= 0.21\ngini = 0.13\nsamples = 1900\nvalue = [2766, 216]"] ;
733 -> 734 ;
735 [label="X[4221] <= 0.44\ngini = 0.13\nsamples = 1899\nvalue = [2766, 215]"] ;
734 -> 735 ;
736 [label="X[1022] <= 0.49\ngini = 0.13\nsamples = 1898\nvalue = [2766, 214]"] ;
735 -> 736 ;
737 [label="X[11023] <= 0.3\ngini = 0.13\nsamples = 1897\nvalue = [2766, 212]"] ;
736 -> 737 ;
738 [label="X[7760] <= 0.25\ngini = 0.13\nsamples = 1891\nvalue = [2762, 209]"] ;
737 -> 738 ;
739 [label="X[14839] <= 0.12\ngini = 0.13\nsamples = 1890\nvalue = [2762, 208]"] ;
738 -> 739 ;
740 [label="X[8179] <= 0.34\ngini = 0.13\nsamples = 1884\nvalue = [2756, 206]"] ;
739 -> 740 ;
741 [label="X[8702] <= 0.13\ngini = 0.13\nsamples = 1880\nvalue = [2750, 204]"] ;
740 -> 741 ;
742 [label="X[12376] <= 0.3\ngini = 0.13\nsamples = 1874\nvalue = [2745, 200]"] ;
741 -> 742 ;
743 [label="X[2774] <= 0.55\ngini = 0.13\nsamples = 1871\nvalue = [2744, 198]"] ;
742 -> 743 ;
744 [label="X[11436] <= 0.23\ngini = 0.12\nsamples = 1870\nvalue = [2744, 197]"] ;
743 -> 744 ;
745 [label="X[10346] <= 0.48\ngini = 0.12\nsamples = 1869\nvalue = [2744, 196]"] ;
744 -> 745 ;
746 [label="X[5585] <= 0.35\ngini = 0.12\nsamples = 1868\nvalue = [2744, 195]"] ;
745 -> 746 ;
747 [label="X[2800] <= 0.25\ngini = 0.12\nsamples = 1867\nvalue = [2744, 194]"] ;
746 -> 747 ;
748 [label="X[401] <= 0.65\ngini = 0.12\nsamples = 1866\nvalue = [2744, 193]"] ;
747 -> 748 ;
749 [label="X[7842] <= 0.43\ngini = 0.12\nsamples = 1865\nvalue = [2744, 192]"] ;
748 -> 749 ;
750 [label="X[12215] <= 0.29\ngini = 0.12\nsamples = 1864\nvalue = [2744, 191]"] ;
749 -> 750 ;
751 [label="X[12378] <= 0.18\ngini = 0.12\nsamples = 1863\nvalue = [2744, 190]"] ;
750 -> 751 ;
752 [label="X[12689] <= 0.18\ngini = 0.12\nsamples = 1862\nvalue = [2744, 189]"] ;
751 -> 752 ;
753 [label="X[6895] <= 0.24\ngini = 0.12\nsamples = 1861\nvalue = [2744, 188]"] ;
752 -> 753 ;
754 [label="X[8412] <= 0.21\ngini = 0.12\nsamples = 1860\nvalue = [2744, 187]"] ;
753 -> 754 ;
755 [label="X[1921] <= 0.21\ngini = 0.12\nsamples = 1859\nvalue = [2744, 186]"] ;
754 -> 755 ;
756 [label="X[4629] <= 0.6\ngini = 0.12\nsamples = 1858\nvalue = [2744, 185]"] ;
755 -> 756 ;
757 [label="X[13124] <= 0.33\ngini = 0.12\nsamples = 1857\nvalue = [2744, 184]"] ;
756 -> 757 ;
758 [label="X[12809] <= 0.34\ngini = 0.12\nsamples = 1856\nvalue = [2744, 183]"] ;
757 -> 758 ;
759 [label="X[12331] <= 0.28\ngini = 0.12\nsamples = 1854\nvalue = [2744, 181]"] ;
758 -> 759 ;
760 [label="X[729] <= 0.27\ngini = 0.12\nsamples = 1853\nvalue = [2744, 180]"] ;
759 -> 760 ;
761 [label="X[6019] <= 0.18\ngini = 0.11\nsamples = 1852\nvalue = [2744, 179]"] ;
760 -> 761 ;
762 [label="X[6743] <= 0.26\ngini = 0.11\nsamples = 1851\nvalue = [2744, 178]"] ;
761 -> 762 ;
763 [label="X[12021] <= 0.36\ngini = 0.11\nsamples = 1850\nvalue = [2744, 177]"] ;
762 -> 763 ;
764 [label="X[13749] <= 0.3\ngini = 0.11\nsamples = 1848\nvalue = [2743, 175]"] ;
763 -> 764 ;
765 [label="X[1740] <= 0.5\ngini = 0.11\nsamples = 1847\nvalue = [2743, 174]"] ;
764 -> 765 ;
766 [label="X[8764] <= 0.32\ngini = 0.11\nsamples = 1846\nvalue = [2743, 173]"] ;
765 -> 766 ;
767 [label="X[12793] <= 0.53\ngini = 0.11\nsamples = 1845\nvalue = [2743, 172]"] ;
766 -> 767 ;
768 [label="X[11811] <= 0.36\ngini = 0.11\nsamples = 1844\nvalue = [2743, 171]"] ;
767 -> 768 ;
769 [label="X[6002] <= 0.36\ngini = 0.11\nsamples = 1837\nvalue = [2735, 167]"] ;
768 -> 769 ;
770 [label="X[2152] <= 0.58\ngini = 0.11\nsamples = 1836\nvalue = [2735, 166]"] ;
769 -> 770 ;
771 [label="X[10021] <= 0.36\ngini = 0.11\nsamples = 1835\nvalue = [2735, 164]"] ;
770 -> 771 ;
772 [label="X[4756] <= 0.51\ngini = 0.11\nsamples = 1834\nvalue = [2735, 163]"] ;
771 -> 772 ;
773 [label="X[5052] <= 0.37\ngini = 0.11\nsamples = 1833\nvalue = [2735, 162]"] ;
772 -> 773 ;
774 [label="X[3913] <= 0.53\ngini = 0.1\nsamples = 1828\nvalue = [2730, 160]"] ;
773 -> 774 ;
775 [label="X[3594] <= 0.22\ngini = 0.1\nsamples = 1827\nvalue = [2730, 159]"] ;
774 -> 775 ;
776 [label="X[707] <= 0.18\ngini = 0.1\nsamples = 1826\nvalue = [2730, 158]"] ;
775 -> 776 ;
777 [label="X[13056] <= 0.42\ngini = 0.1\nsamples = 1825\nvalue = [2730, 157]"] ;
776 -> 777 ;
778 [label="X[14967] <= 0.25\ngini = 0.1\nsamples = 1824\nvalue = [2730, 156]"] ;
777 -> 778 ;
779 [label="X[14215] <= 0.37\ngini = 0.1\nsamples = 1823\nvalue = [2730, 155]"] ;
778 -> 779 ;
780 [label="X[4235] <= 0.23\ngini = 0.1\nsamples = 1810\nvalue = [2718, 151]"] ;
779 -> 780 ;
781 [label="X[15195] <= 0.3\ngini = 0.1\nsamples = 1809\nvalue = [2718, 150]"] ;
780 -> 781 ;
782 [label="X[5089] <= 0.24\ngini = 0.1\nsamples = 1808\nvalue = [2718, 149]"] ;
781 -> 782 ;
783 [label="X[3795] <= 0.71\ngini = 0.1\nsamples = 1807\nvalue = [2718, 148]"] ;
782 -> 783 ;
784 [label="X[13336] <= 0.34\ngini = 0.1\nsamples = 1806\nvalue = [2718, 147]"] ;
783 -> 784 ;
785 [label="X[3671] <= 0.5\ngini = 0.1\nsamples = 1805\nvalue = [2718, 146]"] ;
784 -> 785 ;
786 [label="X[7225] <= 0.25\ngini = 0.1\nsamples = 1804\nvalue = [2718, 144]"] ;
785 -> 786 ;
787 [label="X[13253] <= 0.38\ngini = 0.09\nsamples = 1803\nvalue = [2718, 143]"] ;
786 -> 787 ;
788 [label="X[13150] <= 0.15\ngini = 0.09\nsamples = 1802\nvalue = [2718, 142]"] ;
787 -> 788 ;
789 [label="X[158] <= 0.32\ngini = 0.09\nsamples = 1801\nvalue = [2718, 141]"] ;
788 -> 789 ;
790 [label="X[14275] <= 0.42\ngini = 0.09\nsamples = 1800\nvalue = [2718, 140]"] ;
789 -> 790 ;
791 [label="X[5514] <= 0.42\ngini = 0.09\nsamples = 1799\nvalue = [2718, 139]"] ;
790 -> 791 ;
792 [label="X[4935] <= 0.65\ngini = 0.09\nsamples = 1798\nvalue = [2718, 138]"] ;
791 -> 792 ;
793 [label="X[4744] <= 0.46\ngini = 0.09\nsamples = 1797\nvalue = [2718, 137]"] ;
792 -> 793 ;
794 [label="X[3836] <= 0.13\ngini = 0.09\nsamples = 1796\nvalue = [2718, 136]"] ;
793 -> 794 ;
795 [label="X[10723] <= 0.18\ngini = 0.09\nsamples = 1788\nvalue = [2700, 136]"] ;
794 -> 795 ;
796 [label="X[2413] <= 0.21\ngini = 0.09\nsamples = 1787\nvalue = [2700, 135]"] ;
795 -> 796 ;
797 [label="X[15165] <= 0.26\ngini = 0.09\nsamples = 1786\nvalue = [2700, 134]"] ;
796 -> 797 ;
798 [label="X[14601] <= 0.49\ngini = 0.09\nsamples = 1781\nvalue = [2694, 133]"] ;
797 -> 798 ;
799 [label="X[11887] <= 0.18\ngini = 0.09\nsamples = 1780\nvalue = [2694, 132]"] ;
798 -> 799 ;
800 [label="X[2118] <= 0.45\ngini = 0.09\nsamples = 1779\nvalue = [2694, 131]"] ;
799 -> 800 ;
801 [label="X[15067] <= 0.19\ngini = 0.09\nsamples = 1778\nvalue = [2694, 130]"] ;
800 -> 801 ;
802 [label="X[4214] <= 0.27\ngini = 0.09\nsamples = 1777\nvalue = [2694, 129]"] ;
801 -> 802 ;
803 [label="X[10591] <= 0.24\ngini = 0.09\nsamples = 1776\nvalue = [2694, 128]"] ;
802 -> 803 ;
804 [label="X[11797] <= 0.28\ngini = 0.09\nsamples = 1775\nvalue = [2694, 127]"] ;
803 -> 804 ;
805 [label="X[2585] <= 0.16\ngini = 0.09\nsamples = 1774\nvalue = [2694, 126]"] ;
804 -> 805 ;
806 [label="X[543] <= 0.21\ngini = 0.08\nsamples = 1772\nvalue = [2693, 125]"] ;
805 -> 806 ;
807 [label="X[257] <= 0.21\ngini = 0.08\nsamples = 1771\nvalue = [2693, 124]"] ;
806 -> 807 ;
808 [label="X[818] <= 0.36\ngini = 0.08\nsamples = 1770\nvalue = [2693, 123]"] ;
807 -> 808 ;
809 [label="X[5375] <= 0.24\ngini = 0.08\nsamples = 1769\nvalue = [2693, 122]"] ;
808 -> 809 ;
810 [label="X[2968] <= 0.36\ngini = 0.08\nsamples = 1768\nvalue = [2693, 121]"] ;
809 -> 810 ;
811 [label="X[13796] <= 0.35\ngini = 0.08\nsamples = 1767\nvalue = [2693, 120]"] ;
810 -> 811 ;
812 [label="X[5269] <= 0.36\ngini = 0.08\nsamples = 1764\nvalue = [2689, 119]"] ;
811 -> 812 ;
813 [label="X[7429] <= 0.21\ngini = 0.08\nsamples = 1763\nvalue = [2689, 118]"] ;
812 -> 813 ;
814 [label="X[12270] <= 0.36\ngini = 0.08\nsamples = 1762\nvalue = [2689, 117]"] ;
813 -> 814 ;
815 [label="X[5643] <= 0.4\ngini = 0.08\nsamples = 1761\nvalue = [2689, 116]"] ;
814 -> 815 ;
816 [label="X[6633] <= 0.29\ngini = 0.08\nsamples = 1760\nvalue = [2689, 115]"] ;
815 -> 816 ;
817 [label="X[4628] <= 0.43\ngini = 0.08\nsamples = 1759\nvalue = [2689, 114]"] ;
816 -> 817 ;
818 [label="X[7808] <= 0.38\ngini = 0.08\nsamples = 1758\nvalue = [2689, 113]"] ;
817 -> 818 ;
819 [label="X[13648] <= 0.2\ngini = 0.08\nsamples = 1757\nvalue = [2689, 112]"] ;
818 -> 819 ;
820 [label="X[1358] <= 0.19\ngini = 0.08\nsamples = 1756\nvalue = [2689, 111]"] ;
819 -> 820 ;
821 [label="X[15433] <= 0.24\ngini = 0.08\nsamples = 1755\nvalue = [2689, 110]"] ;
820 -> 821 ;
822 [label="X[13661] <= 0.47\ngini = 0.07\nsamples = 1754\nvalue = [2689, 109]"] ;
821 -> 822 ;
823 [label="X[4879] <= 0.41\ngini = 0.07\nsamples = 1753\nvalue = [2689, 108]"] ;
822 -> 823 ;
824 [label="X[5446] <= 0.27\ngini = 0.07\nsamples = 1750\nvalue = [2685, 107]"] ;
823 -> 824 ;
825 [label="X[734] <= 0.17\ngini = 0.07\nsamples = 1749\nvalue = [2685, 106]"] ;
824 -> 825 ;
826 [label="X[2592] <= 0.29\ngini = 0.07\nsamples = 1748\nvalue = [2685, 105]"] ;
825 -> 826 ;
827 [label="X[3675] <= 0.24\ngini = 0.07\nsamples = 1741\nvalue = [2677, 103]"] ;
826 -> 827 ;
828 [label="X[5214] <= 0.29\ngini = 0.07\nsamples = 1740\nvalue = [2677, 102]"] ;
827 -> 828 ;
829 [label="X[10444] <= 0.27\ngini = 0.07\nsamples = 1733\nvalue = [2669, 100]"] ;
828 -> 829 ;
830 [label="X[1360] <= 0.58\ngini = 0.07\nsamples = 1723\nvalue = [2654, 97]"] ;
829 -> 830 ;
831 [label="X[13968] <= 0.33\ngini = 0.07\nsamples = 1722\nvalue = [2654, 96]"] ;
830 -> 831 ;
832 [label="X[9809] <= 0.21\ngini = 0.07\nsamples = 1715\nvalue = [2643, 95]"] ;
831 -> 832 ;
833 [label="X[11753] <= 0.27\ngini = 0.07\nsamples = 1714\nvalue = [2643, 94]"] ;
832 -> 833 ;
834 [label="X[3132] <= 0.46\ngini = 0.07\nsamples = 1708\nvalue = [2635, 93]"] ;
833 -> 834 ;
835 [label="X[7400] <= 0.39\ngini = 0.07\nsamples = 1707\nvalue = [2635, 92]"] ;
834 -> 835 ;
836 [label="X[1109] <= 0.68\ngini = 0.06\nsamples = 1706\nvalue = [2635, 91]"] ;
835 -> 836 ;
837 [label="X[12719] <= 0.48\ngini = 0.06\nsamples = 1705\nvalue = [2635, 89]"] ;
836 -> 837 ;
838 [label="X[7001] <= 0.33\ngini = 0.06\nsamples = 1703\nvalue = [2633, 88]"] ;
837 -> 838 ;
839 [label="X[3166] <= 0.74\ngini = 0.06\nsamples = 1702\nvalue = [2633, 87]"] ;
838 -> 839 ;
840 [label="X[2681] <= 0.23\ngini = 0.06\nsamples = 1701\nvalue = [2633, 84]"] ;
839 -> 840 ;
841 [label="X[8449] <= 0.13\ngini = 0.06\nsamples = 1700\nvalue = [2633, 83]"] ;
840 -> 841 ;
842 [label="X[11046] <= 0.34\ngini = 0.06\nsamples = 1690\nvalue = [2615, 83]"] ;
841 -> 842 ;
843 [label="X[8203] <= 0.37\ngini = 0.06\nsamples = 1689\nvalue = [2615, 82]"] ;
842 -> 843 ;
844 [label="X[3130] <= 0.66\ngini = 0.06\nsamples = 1686\nvalue = [2612, 81]"] ;
843 -> 844 ;
845 [label="X[8364] <= 0.31\ngini = 0.06\nsamples = 1684\nvalue = [2611, 80]"] ;
844 -> 845 ;
846 [label="X[2159] <= 0.15\ngini = 0.06\nsamples = 1678\nvalue = [2605, 79]"] ;
845 -> 846 ;
847 [label="X[4958] <= 0.34\ngini = 0.06\nsamples = 1673\nvalue = [2597, 79]"] ;
846 -> 847 ;
848 [label="X[3863] <= 0.22\ngini = 0.06\nsamples = 1670\nvalue = [2595, 78]"] ;
847 -> 848 ;
849 [label="X[5077] <= 0.21\ngini = 0.06\nsamples = 1669\nvalue = [2595, 77]"] ;
848 -> 849 ;
850 [label="X[14726] <= 0.28\ngini = 0.06\nsamples = 1668\nvalue = [2595, 76]"] ;
849 -> 850 ;
851 [label="X[5222] <= 0.61\ngini = 0.05\nsamples = 1664\nvalue = [2590, 75]"] ;
850 -> 851 ;
852 [label="X[8115] <= 0.08\ngini = 0.05\nsamples = 1663\nvalue = [2590, 74]"] ;
851 -> 852 ;
853 [label="X[5111] <= 0.24\ngini = 0.05\nsamples = 1651\nvalue = [2572, 74]"] ;
852 -> 853 ;
854 [label="X[10089] <= 0.31\ngini = 0.05\nsamples = 1650\nvalue = [2572, 73]"] ;
853 -> 854 ;
855 [label="X[4585] <= 0.38\ngini = 0.05\nsamples = 1645\nvalue = [2568, 71]"] ;
854 -> 855 ;
856 [label="X[4042] <= 0.1\ngini = 0.05\nsamples = 1640\nvalue = [2562, 70]"] ;
855 -> 856 ;
857 [label="X[6250] <= 0.27\ngini = 0.05\nsamples = 1632\nvalue = [2552, 70]"] ;
856 -> 857 ;
858 [label="X[896] <= 0.24\ngini = 0.05\nsamples = 1624\nvalue = [2544, 68]"] ;
857 -> 858 ;
859 [label="X[13948] <= 0.23\ngini = 0.05\nsamples = 1613\nvalue = [2528, 66]"] ;
858 -> 859 ;
860 [label="X[9110] <= 0.12\ngini = 0.05\nsamples = 1601\nvalue = [2515, 64]"] ;
859 -> 860 ;
861 [label="X[7251] <= 0.18\ngini = 0.05\nsamples = 1594\nvalue = [2503, 64]"] ;
860 -> 861 ;
862 [label="X[11933] <= 0.19\ngini = 0.05\nsamples = 1593\nvalue = [2503, 63]"] ;
861 -> 862 ;
863 [label="X[8553] <= 0.53\ngini = 0.05\nsamples = 1578\nvalue = [2477, 61]"] ;
862 -> 863 ;
864 [label="X[14205] <= 0.22\ngini = 0.05\nsamples = 1577\nvalue = [2477, 60]"] ;
863 -> 864 ;
865 [label="X[14862] <= 0.15\ngini = 0.05\nsamples = 1535\nvalue = [2407, 60]"] ;
864 -> 865 ;
866 [label="X[15355] <= 0.38\ngini = 0.05\nsamples = 1533\nvalue = [2406, 59]"] ;
865 -> 866 ;
867 [label="X[5685] <= 0.54\ngini = 0.05\nsamples = 1530\nvalue = [2403, 58]"] ;
866 -> 867 ;
868 [label="X[401] <= 0.13\ngini = 0.05\nsamples = 1528\nvalue = [2401, 57]"] ;
867 -> 868 ;
869 [label="X[2408] <= 0.29\ngini = 0.05\nsamples = 1523\nvalue = [2390, 57]"] ;
868 -> 869 ;
870 [label="X[9824] <= 0.34\ngini = 0.04\nsamples = 1522\nvalue = [2390, 56]"] ;
869 -> 870 ;
871 [label="X[9053] <= 0.21\ngini = 0.04\nsamples = 1521\nvalue = [2390, 55]"] ;
870 -> 871 ;
872 [label="X[3232] <= 0.27\ngini = 0.04\nsamples = 1520\nvalue = [2390, 54]"] ;
871 -> 872 ;
873 [label="X[1587] <= 0.14\ngini = 0.04\nsamples = 1519\nvalue = [2390, 53]"] ;
872 -> 873 ;
874 [label="X[1451] <= 0.42\ngini = 0.04\nsamples = 1515\nvalue = [2379, 53]"] ;
873 -> 874 ;
875 [label="X[12140] <= 0.4\ngini = 0.04\nsamples = 1513\nvalue = [2377, 52]"] ;
874 -> 875 ;
876 [label="X[46] <= 0.22\ngini = 0.04\nsamples = 1508\nvalue = [2373, 50]"] ;
875 -> 876 ;
877 [label="X[3565] <= 0.1\ngini = 0.04\nsamples = 1507\nvalue = [2373, 49]"] ;
876 -> 877 ;
878 [label="X[12815] <= 0.1\ngini = 0.04\nsamples = 1489\nvalue = [2344, 49]"] ;
877 -> 878 ;
879 [label="X[6292] <= 0.13\ngini = 0.04\nsamples = 1465\nvalue = [2304, 49]"] ;
878 -> 879 ;
880 [label="X[13731] <= 0.1\ngini = 0.04\nsamples = 1458\nvalue = [2289, 49]"] ;
879 -> 880 ;
881 [label="X[13461] <= 0.11\ngini = 0.04\nsamples = 1442\nvalue = [2267, 49]"] ;
880 -> 881 ;
882 [label="X[8451] <= 0.14\ngini = 0.04\nsamples = 1428\nvalue = [2245, 49]"] ;
881 -> 882 ;
883 [label="X[14401] <= 0.23\ngini = 0.04\nsamples = 1423\nvalue = [2235, 49]"] ;
882 -> 883 ;
884 [label="X[2529] <= 0.09\ngini = 0.04\nsamples = 1422\nvalue = [2235, 48]"] ;
883 -> 884 ;
885 [label="X[8245] <= 0.09\ngini = 0.04\nsamples = 1405\nvalue = [2211, 48]"] ;
884 -> 885 ;
886 [label="X[2592] <= 0.1\ngini = 0.04\nsamples = 1381\nvalue = [2169, 48]"] ;
885 -> 886 ;
887 [label="X[113] <= 0.17\ngini = 0.04\nsamples = 1371\nvalue = [2153, 48]"] ;
886 -> 887 ;
888 [label="X[3336] <= 0.39\ngini = 0.04\nsamples = 1367\nvalue = [2145, 48]"] ;
887 -> 888 ;
889 [label="X[14912] <= 0.26\ngini = 0.04\nsamples = 1366\nvalue = [2145, 47]"] ;
888 -> 889 ;
890 [label="X[14072] <= 0.32\ngini = 0.04\nsamples = 1363\nvalue = [2139, 46]"] ;
889 -> 890 ;
891 [label="X[12908] <= 0.24\ngini = 0.04\nsamples = 1360\nvalue = [2133, 45]"] ;
890 -> 891 ;
892 [label="X[2409] <= 0.11\ngini = 0.04\nsamples = 1348\nvalue = [2119, 44]"] ;
891 -> 892 ;
893 [label="X[13308] <= 0.14\ngini = 0.04\nsamples = 1335\nvalue = [2099, 44]"] ;
892 -> 893 ;
894 [label="X[9304] <= 0.47\ngini = 0.04\nsamples = 1328\nvalue = [2083, 44]"] ;
893 -> 894 ;
895 [label="X[14312] <= 0.15\ngini = 0.04\nsamples = 1327\nvalue = [2083, 43]"] ;
894 -> 895 ;
896 [label="X[13926] <= 0.33\ngini = 0.04\nsamples = 1320\nvalue = [2067, 43]"] ;
895 -> 896 ;
897 [label="X[10563] <= 0.21\ngini = 0.04\nsamples = 1319\nvalue = [2067, 42]"] ;
896 -> 897 ;
898 [label="X[12593] <= 0.16\ngini = 0.04\nsamples = 1318\nvalue = [2067, 41]"] ;
897 -> 898 ;
899 [label="X[14147] <= 0.13\ngini = 0.04\nsamples = 1312\nvalue = [2059, 41]"] ;
898 -> 899 ;
900 [label="X[247] <= 0.13\ngini = 0.04\nsamples = 1303\nvalue = [2045, 41]"] ;
899 -> 900 ;
901 [label="X[15316] <= 0.11\ngini = 0.04\nsamples = 1296\nvalue = [2036, 41]"] ;
900 -> 901 ;
902 [label="X[815] <= 0.74\ngini = 0.04\nsamples = 1292\nvalue = [2031, 41]"] ;
901 -> 902 ;
903 [label="X[5160] <= 0.13\ngini = 0.04\nsamples = 1291\nvalue = [2031, 40]"] ;
902 -> 903 ;
904 [label="X[311] <= 0.64\ngini = 0.04\nsamples = 1285\nvalue = [2021, 40]"] ;
903 -> 904 ;
905 [label="X[1791] <= 0.28\ngini = 0.04\nsamples = 1284\nvalue = [2021, 39]"] ;
904 -> 905 ;
906 [label="X[11668] <= 0.33\ngini = 0.04\nsamples = 1283\nvalue = [2021, 38]"] ;
905 -> 906 ;
907 [label="X[4841] <= 0.08\ngini = 0.04\nsamples = 1276\nvalue = [2010, 37]"] ;
906 -> 907 ;
908 [label="X[13277] <= 0.31\ngini = 0.04\nsamples = 1250\nvalue = [1976, 37]"] ;
907 -> 908 ;
909 [label="X[5032] <= 0.35\ngini = 0.04\nsamples = 1249\nvalue = [1976, 36]"] ;
908 -> 909 ;
910 [label="X[13656] <= 0.08\ngini = 0.03\nsamples = 1242\nvalue = [1965, 35]"] ;
909 -> 910 ;
911 [label="X[11646] <= 0.13\ngini = 0.03\nsamples = 1224\nvalue = [1930, 35]"] ;
910 -> 911 ;
912 [label="X[13796] <= 0.12\ngini = 0.04\nsamples = 1218\nvalue = [1920, 35]"] ;
911 -> 912 ;
913 [label="X[13724] <= 0.09\ngini = 0.04\nsamples = 1208\nvalue = [1910, 35]"] ;
912 -> 913 ;
914 [label="X[11694] <= 0.15\ngini = 0.04\nsamples = 1180\nvalue = [1867, 35]"] ;
913 -> 914 ;
915 [label="X[6343] <= 0.41\ngini = 0.04\nsamples = 1175\nvalue = [1859, 35]"] ;
914 -> 915 ;
916 [label="X[8753] <= 0.07\ngini = 0.04\nsamples = 1171\nvalue = [1856, 34]"] ;
915 -> 916 ;
917 [label="X[5547] <= 0.15\ngini = 0.04\nsamples = 1146\nvalue = [1814, 34]"] ;
916 -> 917 ;
918 [label="X[572] <= 0.13\ngini = 0.04\nsamples = 1143\nvalue = [1809, 34]"] ;
917 -> 918 ;
919 [label="X[1956] <= 0.09\ngini = 0.04\nsamples = 1137\nvalue = [1795, 34]"] ;
918 -> 919 ;
920 [label="X[6896] <= 0.1\ngini = 0.04\nsamples = 1122\nvalue = [1773, 34]"] ;
919 -> 920 ;
921 [label="X[13285] <= 0.1\ngini = 0.04\nsamples = 1116\nvalue = [1764, 34]"] ;
920 -> 921 ;
922 [label="X[2116] <= 0.11\ngini = 0.04\nsamples = 1106\nvalue = [1747, 34]"] ;
921 -> 922 ;
923 [label="X[7492] <= 0.07\ngini = 0.04\nsamples = 1089\nvalue = [1720, 34]"] ;
922 -> 923 ;
924 [label="X[7870] <= 0.48\ngini = 0.04\nsamples = 1015\nvalue = [1603, 34]"] ;
923 -> 924 ;
925 [label="X[8064] <= 0.67\ngini = 0.04\nsamples = 1014\nvalue = [1603, 33]"] ;
924 -> 925 ;
926 [label="X[1389] <= 0.08\ngini = 0.04\nsamples = 1013\nvalue = [1603, 32]"] ;
925 -> 926 ;
927 [label="X[13175] <= 0.29\ngini = 0.04\nsamples = 1003\nvalue = [1589, 32]"] ;
926 -> 927 ;
928 [label="X[7166] <= 0.44\ngini = 0.04\nsamples = 1002\nvalue = [1589, 31]"] ;
927 -> 928 ;
929 [label="X[4585] <= 0.09\ngini = 0.04\nsamples = 1001\nvalue = [1589, 30]"] ;
928 -> 929 ;
930 [label="X[6889] <= 0.11\ngini = 0.04\nsamples = 992\nvalue = [1575, 30]"] ;
929 -> 930 ;
931 [label="X[9637] <= 0.11\ngini = 0.04\nsamples = 980\nvalue = [1556, 30]"] ;
930 -> 931 ;
932 [label="X[12551] <= 0.11\ngini = 0.04\nsamples = 973\nvalue = [1546, 30]"] ;
931 -> 932 ;
933 [label="X[1304] <= 0.09\ngini = 0.04\nsamples = 967\nvalue = [1535, 30]"] ;
932 -> 933 ;
934 [label="X[1488] <= 0.12\ngini = 0.04\nsamples = 935\nvalue = [1468, 30]"] ;
933 -> 934 ;
935 [label="X[5536] <= 0.09\ngini = 0.04\nsamples = 927\nvalue = [1456, 30]"] ;
934 -> 935 ;
936 [label="X[5460] <= 0.14\ngini = 0.04\nsamples = 905\nvalue = [1423, 30]"] ;
935 -> 936 ;
937 [label="X[11811] <= 0.05\ngini = 0.04\nsamples = 903\nvalue = [1420, 30]"] ;
936 -> 937 ;
938 [label="X[4853] <= 0.11\ngini = 0.04\nsamples = 844\nvalue = [1327, 30]"] ;
937 -> 938 ;
939 [label="X[11482] <= 0.34\ngini = 0.04\nsamples = 839\nvalue = [1315, 30]"] ;
938 -> 939 ;
940 [label="X[8651] <= 0.32\ngini = 0.04\nsamples = 833\nvalue = [1309, 28]"] ;
939 -> 940 ;
941 [label="X[14819] <= 0.11\ngini = 0.04\nsamples = 826\nvalue = [1300, 27]"] ;
940 -> 941 ;
942 [label="X[6343] <= 0.1\ngini = 0.04\nsamples = 818\nvalue = [1286, 27]"] ;
941 -> 942 ;
943 [label="X[972] <= 0.1\ngini = 0.04\nsamples = 810\nvalue = [1276, 27]"] ;
942 -> 943 ;
944 [label="X[9075] <= 0.16\ngini = 0.04\nsamples = 797\nvalue = [1255, 27]"] ;
943 -> 944 ;
945 [label="X[12936] <= 0.11\ngini = 0.04\nsamples = 795\nvalue = [1249, 27]"] ;
944 -> 945 ;
946 [label="X[158] <= 0.13\ngini = 0.04\nsamples = 785\nvalue = [1231, 27]"] ;
945 -> 946 ;
947 [label="X[2933] <= 0.06\ngini = 0.04\nsamples = 782\nvalue = [1225, 27]"] ;
946 -> 947 ;
948 [label="X[2871] <= 0.1\ngini = 0.05\nsamples = 724\nvalue = [1124, 27]"] ;
947 -> 948 ;
949 [label="X[10069] <= 0.08\ngini = 0.05\nsamples = 718\nvalue = [1115, 27]"] ;
948 -> 949 ;
950 [label="X[11929] <= 0.25\ngini = 0.05\nsamples = 703\nvalue = [1088, 27]"] ;
949 -> 950 ;
951 [label="X[4983] <= 0.15\ngini = 0.05\nsamples = 693\nvalue = [1070, 26]"] ;
950 -> 951 ;
952 [label="X[4693] <= 0.08\ngini = 0.05\nsamples = 691\nvalue = [1067, 26]"] ;
951 -> 952 ;
953 [label="X[8732] <= 0.13\ngini = 0.05\nsamples = 670\nvalue = [1037, 26]"] ;
952 -> 953 ;
954 [label="X[6044] <= 0.71\ngini = 0.05\nsamples = 665\nvalue = [1025, 26]"] ;
953 -> 954 ;
955 [label="X[13591] <= 0.11\ngini = 0.05\nsamples = 664\nvalue = [1025, 25]"] ;
954 -> 955 ;
956 [label="X[5263] <= 0.5\ngini = 0.05\nsamples = 658\nvalue = [1013, 25]"] ;
955 -> 956 ;
957 [label="X[12150] <= 0.13\ngini = 0.05\nsamples = 657\nvalue = [1013, 24]"] ;
956 -> 957 ;
958 [label="X[12709] <= 0.26\ngini = 0.05\nsamples = 652\nvalue = [1005, 24]"] ;
957 -> 958 ;
959 [label="X[14188] <= 0.13\ngini = 0.04\nsamples = 645\nvalue = [995, 23]"] ;
958 -> 959 ;
960 [label="X[8073] <= 0.11\ngini = 0.04\nsamples = 639\nvalue = [988, 23]"] ;
959 -> 960 ;
961 [label="X[2520] <= 0.09\ngini = 0.04\nsamples = 631\nvalue = [976, 23]"] ;
960 -> 961 ;
962 [label="X[5601] <= 0.11\ngini = 0.05\nsamples = 619\nvalue = [961, 23]"] ;
961 -> 962 ;
963 [label="X[2308] <= 0.09\ngini = 0.05\nsamples = 611\nvalue = [950, 23]"] ;
962 -> 963 ;
964 [label="X[12145] <= 0.4\ngini = 0.05\nsamples = 598\nvalue = [926, 23]"] ;
963 -> 964 ;
965 [label="X[9598] <= 0.43\ngini = 0.05\nsamples = 594\nvalue = [922, 22]"] ;
964 -> 965 ;
966 [label="X[12519] <= 0.12\ngini = 0.04\nsamples = 591\nvalue = [919, 21]"] ;
965 -> 966 ;
967 [label="X[12275] <= 0.12\ngini = 0.04\nsamples = 587\nvalue = [909, 21]"] ;
966 -> 967 ;
968 [label="X[12709] <= 0.09\ngini = 0.04\nsamples = 582\nvalue = [900, 21]"] ;
967 -> 968 ;
969 [label="X[9445] <= 0.08\ngini = 0.05\nsamples = 559\nvalue = [867, 21]"] ;
968 -> 969 ;
970 [label="X[2961] <= 0.14\ngini = 0.05\nsamples = 553\nvalue = [856, 21]"] ;
969 -> 970 ;
971 [label="X[8436] <= 0.14\ngini = 0.05\nsamples = 550\nvalue = [851, 21]"] ;
970 -> 971 ;
972 [label="X[3627] <= 0.1\ngini = 0.05\nsamples = 547\nvalue = [846, 21]"] ;
971 -> 972 ;
973 [label="X[12575] <= 0.08\ngini = 0.05\nsamples = 539\nvalue = [826, 21]"] ;
972 -> 973 ;
974 [label="X[8992] <= 0.15\ngini = 0.05\nsamples = 524\nvalue = [797, 21]"] ;
973 -> 974 ;
975 [label="X[9866] <= 0.45\ngini = 0.05\nsamples = 489\nvalue = [740, 21]"] ;
974 -> 975 ;
976 [label="X[12141] <= 0.1\ngini = 0.05\nsamples = 488\nvalue = [740, 20]"] ;
975 -> 976 ;
977 [label="X[11566] <= 0.15\ngini = 0.05\nsamples = 479\nvalue = [725, 20]"] ;
976 -> 977 ;
978 [label="X[11597] <= 0.16\ngini = 0.05\nsamples = 476\nvalue = [721, 20]"] ;
977 -> 978 ;
979 [label="X[8794] <= 0.09\ngini = 0.05\nsamples = 474\nvalue = [715, 20]"] ;
978 -> 979 ;
980 [label="X[7351] <= 0.04\ngini = 0.05\nsamples = 465\nvalue = [698, 20]"] ;
979 -> 980 ;
981 [label="X[12979] <= 0.13\ngini = 0.06\nsamples = 443\nvalue = [666, 20]"] ;
980 -> 981 ;
982 [label="X[7546] <= 0.16\ngini = 0.06\nsamples = 435\nvalue = [653, 20]"] ;
981 -> 982 ;
983 [label="X[14730] <= 0.12\ngini = 0.06\nsamples = 433\nvalue = [649, 20]"] ;
982 -> 983 ;
984 [label="X[12180] <= 0.1\ngini = 0.06\nsamples = 429\nvalue = [644, 20]"] ;
983 -> 984 ;
985 [label="X[254] <= 0.1\ngini = 0.06\nsamples = 422\nvalue = [632, 20]"] ;
984 -> 985 ;
986 [label="X[6279] <= 0.09\ngini = 0.06\nsamples = 417\nvalue = [625, 20]"] ;
985 -> 986 ;
987 [label="X[12753] <= 0.14\ngini = 0.06\nsamples = 404\nvalue = [612, 20]"] ;
986 -> 987 ;
988 [label="X[12439] <= 0.09\ngini = 0.06\nsamples = 400\nvalue = [606, 20]"] ;
987 -> 988 ;
989 [label="X[11933] <= 0.07\ngini = 0.06\nsamples = 389\nvalue = [585, 20]"] ;
988 -> 989 ;
990 [label="X[15306] <= 0.1\ngini = 0.06\nsamples = 384\nvalue = [580, 20]"] ;
989 -> 990 ;
991 [label="X[13022] <= 0.2\ngini = 0.07\nsamples = 380\nvalue = [573, 20]"] ;
990 -> 991 ;
992 [label="X[13528] <= 0.2\ngini = 0.07\nsamples = 379\nvalue = [570, 20]"] ;
991 -> 992 ;
993 [label="X[435] <= 0.08\ngini = 0.07\nsamples = 378\nvalue = [567, 20]"] ;
992 -> 993 ;
994 [label="X[11208] <= 0.15\ngini = 0.07\nsamples = 375\nvalue = [563, 20]"] ;
993 -> 994 ;
995 [label="X[7981] <= 0.18\ngini = 0.07\nsamples = 371\nvalue = [556, 20]"] ;
994 -> 995 ;
996 [label="X[14890] <= 0.1\ngini = 0.07\nsamples = 370\nvalue = [554, 20]"] ;
995 -> 996 ;
997 [label="X[9992] <= 0.19\ngini = 0.07\nsamples = 366\nvalue = [550, 20]"] ;
996 -> 997 ;
998 [label="X[211] <= 0.12\ngini = 0.07\nsamples = 364\nvalue = [544, 20]"] ;
997 -> 998 ;
999 [label="X[2249] <= 0.22\ngini = 0.07\nsamples = 361\nvalue = [539, 20]"] ;
998 -> 999 ;
1000 [label="X[6243] <= 0.12\ngini = 0.07\nsamples = 360\nvalue = [535, 20]"] ;
999 -> 1000 ;
1001 [label="X[7548] <= 0.14\ngini = 0.07\nsamples = 358\nvalue = [530, 20]"] ;
1000 -> 1001 ;
1002 [label="X[14625] <= 0.13\ngini = 0.07\nsamples = 356\nvalue = [526, 20]"] ;
1001 -> 1002 ;
1003 [label="X[2437] <= 0.14\ngini = 0.07\nsamples = 354\nvalue = [522, 20]"] ;
1002 -> 1003 ;
1004 [label="X[933] <= 0.12\ngini = 0.07\nsamples = 350\nvalue = [517, 20]"] ;
1003 -> 1004 ;
1005 [label="X[11206] <= 0.09\ngini = 0.07\nsamples = 348\nvalue = [513, 20]"] ;
1004 -> 1005 ;
1006 [label="X[13135] <= 0.1\ngini = 0.07\nsamples = 338\nvalue = [495, 20]"] ;
1005 -> 1006 ;
1007 [label="X[8992] <= 0.15\ngini = 0.08\nsamples = 334\nvalue = [490, 20]"] ;
1006 -> 1007 ;
1008 [label="X[14388] <= 0.23\ngini = 0.07\nsamples = 333\nvalue = [490, 19]"] ;
1007 -> 1008 ;
1009 [label="X[2755] <= 0.14\ngini = 0.07\nsamples = 332\nvalue = [488, 19]"] ;
1008 -> 1009 ;
1010 [label="X[547] <= 0.14\ngini = 0.07\nsamples = 330\nvalue = [486, 19]"] ;
1009 -> 1010 ;
1011 [label="X[8141] <= 0.24\ngini = 0.07\nsamples = 328\nvalue = [483, 19]"] ;
1010 -> 1011 ;
1012 [label="X[3173] <= 0.1\ngini = 0.07\nsamples = 327\nvalue = [480, 19]"] ;
1011 -> 1012 ;
1013 [label="X[1037] <= 0.5\ngini = 0.07\nsamples = 324\nvalue = [476, 19]"] ;
1012 -> 1013 ;
1014 [label="X[8992] <= 0.05\ngini = 0.07\nsamples = 323\nvalue = [476, 18]"] ;
1013 -> 1014 ;
1015 [label="X[14611] <= 0.11\ngini = 0.07\nsamples = 310\nvalue = [459, 18]"] ;
1014 -> 1015 ;
1016 [label="X[9770] <= 0.2\ngini = 0.07\nsamples = 304\nvalue = [448, 18]"] ;
1015 -> 1016 ;
1017 [label="X[8122] <= 0.26\ngini = 0.07\nsamples = 302\nvalue = [445, 18]"] ;
1016 -> 1017 ;
1018 [label="X[7679] <= 0.11\ngini = 0.08\nsamples = 299\nvalue = [440, 18]"] ;
1017 -> 1018 ;
1019 [label="X[14773] <= 0.3\ngini = 0.08\nsamples = 294\nvalue = [433, 18]"] ;
1018 -> 1019 ;
1020 [label="X[3579] <= 0.16\ngini = 0.08\nsamples = 293\nvalue = [430, 18]"] ;
1019 -> 1020 ;
1021 [label="X[10152] <= 0.23\ngini = 0.08\nsamples = 291\nvalue = [426, 18]"] ;
1020 -> 1021 ;
1022 [label="X[12745] <= 0.42\ngini = 0.08\nsamples = 289\nvalue = [423, 18]"] ;
1021 -> 1022 ;
1023 [label="X[5552] <= 0.1\ngini = 0.07\nsamples = 287\nvalue = [420, 16]"] ;
1022 -> 1023 ;
1024 [label="X[11529] <= 0.14\ngini = 0.07\nsamples = 285\nvalue = [415, 16]"] ;
1023 -> 1024 ;
1025 [label="X[12955] <= 0.12\ngini = 0.07\nsamples = 284\nvalue = [412, 16]"] ;
1024 -> 1025 ;
1026 [label="X[8967] <= 0.25\ngini = 0.07\nsamples = 282\nvalue = [409, 16]"] ;
1025 -> 1026 ;
1027 [label="X[9133] <= 0.13\ngini = 0.07\nsamples = 280\nvalue = [405, 16]"] ;
1026 -> 1027 ;
1028 [label="X[5353] <= 0.35\ngini = 0.07\nsamples = 279\nvalue = [402, 16]"] ;
1027 -> 1028 ;
1029 [label="X[14748] <= 0.13\ngini = 0.07\nsamples = 278\nvalue = [400, 16]"] ;
1028 -> 1029 ;
1030 [label="X[849] <= 0.5\ngini = 0.07\nsamples = 276\nvalue = [397, 16]"] ;
1029 -> 1030 ;
1031 [label="X[10914] <= 0.14\ngini = 0.07\nsamples = 275\nvalue = [397, 15]"] ;
1030 -> 1031 ;
1032 [label="X[6353] <= 0.2\ngini = 0.07\nsamples = 274\nvalue = [394, 15]"] ;
1031 -> 1032 ;
1033 [label="X[11482] <= 0.1\ngini = 0.07\nsamples = 272\nvalue = [389, 15]"] ;
1032 -> 1033 ;
1034 [label="X[689] <= 0.09\ngini = 0.07\nsamples = 268\nvalue = [382, 15]"] ;
1033 -> 1034 ;
1035 [label="X[222] <= 0.15\ngini = 0.07\nsamples = 266\nvalue = [379, 15]"] ;
1034 -> 1035 ;
1036 [label="X[14810] <= 0.19\ngini = 0.08\nsamples = 261\nvalue = [369, 15]"] ;
1035 -> 1036 ;
1037 [label="X[11222] <= 0.2\ngini = 0.08\nsamples = 260\nvalue = [367, 15]"] ;
1036 -> 1037 ;
1038 [label="X[8017] <= 0.16\ngini = 0.08\nsamples = 259\nvalue = [365, 15]"] ;
1037 -> 1038 ;
1039 [label="X[11903] <= 0.2\ngini = 0.08\nsamples = 258\nvalue = [363, 15]"] ;
1038 -> 1039 ;
1040 [label="X[14006] <= 0.08\ngini = 0.08\nsamples = 257\nvalue = [359, 15]"] ;
1039 -> 1040 ;
1041 [label="X[11668] <= 0.06\ngini = 0.08\nsamples = 251\nvalue = [353, 15]"] ;
1040 -> 1041 ;
1042 [label="X[1799] <= 0.25\ngini = 0.08\nsamples = 236\nvalue = [332, 15]"] ;
1041 -> 1042 ;
1043 [label="X[1372] <= 0.29\ngini = 0.08\nsamples = 235\nvalue = [330, 15]"] ;
1042 -> 1043 ;
1044 [label="X[3204] <= 0.12\ngini = 0.08\nsamples = 234\nvalue = [328, 15]"] ;
1043 -> 1044 ;
1045 [label="X[9871] <= 0.24\ngini = 0.08\nsamples = 233\nvalue = [325, 15]"] ;
1044 -> 1045 ;
1046 [label="X[14205] <= 0.06\ngini = 0.09\nsamples = 232\nvalue = [322, 15]"] ;
1045 -> 1046 ;
1047 [label="X[15228] <= 0.5\ngini = 0.09\nsamples = 222\nvalue = [307, 15]"] ;
1046 -> 1047 ;
1048 [label="X[11929] <= 0.1\ngini = 0.09\nsamples = 221\nvalue = [305, 15]"] ;
1047 -> 1048 ;
1049 [label="X[4917] <= 0.2\ngini = 0.09\nsamples = 216\nvalue = [296, 15]"] ;
1048 -> 1049 ;
1050 [label="X[12340] <= 0.16\ngini = 0.09\nsamples = 213\nvalue = [293, 15]"] ;
1049 -> 1050 ;
